<?xml version="1.0" encoding="UTF-8"?>
<!-- This network was created in GeNIe Academic, which can be used for academic teaching and research purposes only -->
<smile version="1.0" id="Network1" numsamples="10000" discsamples="10000">
	<nodes>
		<cpt id="T_o" dynamic="plate">
			<state id="s1_below_22" />
			<state id="s2_22_25" />
			<state id="s3_25_29" />
			<state id="s4_up_29" />
			<probabilities>0.160211873151269 0.331498933755245 0.305840269656738 0.202448923436748</probabilities>
		</cpt>
		<cpt id="Q_rad" dynamic="plate">
			<state id="s1_below_500" />
			<state id="s2_500_1300" />
			<state id="s3_1300_2100" />
			<state id="s4_2100_6000" />
			<probabilities>0.51296691201761 0.0751874527068859 0.0672078145422027 0.344637820733301</probabilities>
		</cpt>
		<cpt id="T_z_i" dynamic="anchor">
			<state id="s1_below_19" />
			<state id="s2_19_20" />
			<state id="s3_20_21" />
			<state id="s4_21_up" />
			<probabilities>0.026073197578426 0.747936158503027 0.223376444689048 0.00261419922949917</probabilities>
		</cpt>
		<cpt id="T_z" dynamic="plate">
			<state id="s1_below_19" />
			<state id="s2_19_20" />
			<state id="s3_20_21" />
			<state id="s4_21_up" />
			<parents>T_z_i</parents>
			<probabilities>1 0 0 0 0 1 0 0 0 0 1 0 0 0 0 1</probabilities>
		</cpt>
		<cpt id="T_w_i" dynamic="anchor">
			<state id="s1_below_19" />
			<state id="s2_19_20" />
			<state id="s3_20_21" />
			<state id="s4_21_up" />
			<probabilities>0.0228398458998349 0.364680792515135 0.565423775454045 0.0470555861309851</probabilities>
		</cpt>
		<cpt id="T_w" dynamic="plate">
			<state id="s1_below_19" />
			<state id="s2_19_20" />
			<state id="s3_20_21" />
			<state id="s4_21_up" />
			<parents>T_w_i</parents>
			<probabilities>1 0 0 0 0 1 0 0 0 0 1 0 0 0 0 1</probabilities>
		</cpt>
		<cpt id="T_rw_i" dynamic="anchor">
			<state id="s1_below_18" />
			<state id="s2_18_19" />
			<state id="s3_19_20" />
			<state id="s4_20_21" />
			<state id="s5_up_21" />
			<probabilities>0.192762795817281 0.163249862410567 0.23293891029169 0.268230599889929 0.142817831590534</probabilities>
		</cpt>
		<cpt id="T_rw" dynamic="plate">
			<state id="s1_below_18" />
			<state id="s2_18_19" />
			<state id="s3_19_20" />
			<state id="s4_20_21" />
			<state id="s5_up_21" />
			<parents>T_rw_i</parents>
			<probabilities>1 0 0 0 0 0 1 0 0 0 0 0 1 0 0 0 0 0 1 0 0 0 0 0 1</probabilities>
		</cpt>
		<cpt id="T_sa_i" dynamic="anchor">
			<state id="s1_below_11" />
			<state id="s2_11_12" />
			<state id="s3_12_13" />
			<state id="s4_13_14" />
			<state id="s5_14_up" />
			<probabilities>0.023390203632361 0.340740231150248 0.513483764446891 0.08083379196477709 0.0415520088057237</probabilities>
		</cpt>
		<cpt id="T_sa" dynamic="plate">
			<state id="s1_below_11" />
			<state id="s2_11_12" />
			<state id="s3_12_13" />
			<state id="s4_13_14" />
			<state id="s5_14_up" />
			<parents>T_sa_i</parents>
			<probabilities>1 0 0 0 0 0 1 0 0 0 0 0 1 0 0 0 0 0 1 0 0 0 0 0 1</probabilities>
		</cpt>
		<cpt id="m_sw" dynamic="plate">
			<state id="s1_0_20" />
			<state id="s2_20_40" />
			<state id="s3_40_50" />
			<state id="s4_50_60" />
			<state id="s5_60_80" />
			<state id="s6_80_100" />
			<probabilities>0.0247660979636764 0.124724821133737 0.1760456796918 0.247179416620804 0.406164006604293 0.0211199779856907</probabilities>
		</cpt>
		<cpt id="m_sa" dynamic="plate">
			<state id="s1_below_12" />
			<state id="s2_12_13" />
			<state id="s3_13_14" />
			<state id="s4_14_15" />
			<state id="s5_15_17" />
			<state id="s6_17_up" />
			<probabilities>0.00144458966774438 0.030130013070097 0.679576253697462 0.222260438880099 0.0503542684185183 0.0162344362660797</probabilities>
		</cpt>
		<cpt id="T_z_recently_calibrated_" dynamic="plate">
			<state id="Yes" />
			<state id="No" />
			<probabilities>0.5 0.5</probabilities>
		</cpt>
		<cpt id="T_z_sensor_fault_i" dynamic="anchor">
			<state id="Accurate" />
			<state id="High_severe" />
			<state id="High_mild" />
			<state id="Low_severe" />
			<state id="Low_mild" />
			<probabilities>0.7 0.03 0.12 0.03 0.12</probabilities>
		</cpt>
		<cpt id="T_z_sensor_fault" dynamic="plate">
			<state id="Accurate" />
			<state id="High_severe" />
			<state id="High_mild" />
			<state id="Low_severe" />
			<state id="Low_mild" />
			<parents>T_z_sensor_fault_i</parents>
			<probabilities>1 0 0 0 0 0 1 0 0 0 0 0 1 0 0 0 0 0 1 0 0 0 0 0 1</probabilities>
		</cpt>
		<cpt id="T_z_sensor" dynamic="plate">
			<state id="s1_below_19" />
			<state id="s2_19_20" />
			<state id="s3_20_21" />
			<state id="s4_21_up" />
			<parents>T_z T_z_sensor_fault</parents>
			<probabilities>0.9603790396209604 0.03960896039103961 1.0999989000011e-05 9.999990000010001e-07 0.03985 0.293547 0.332415 0.334188 0.500494 0.331034 0.166535 0.001937 0.9999970000089999 9.99997000009e-07 9.99997000009e-07 9.99997000009e-07 0.9999970000089999 9.99997000009e-07 9.99997000009e-07 9.99997000009e-07 0.119611 0.760799 0.119558 3.2e-05 9.99998000004e-07 9.99998000004e-07 3.3999932000136e-05 0.9999640000719998 9.999990000010001e-07 0.005964994035005965 0.4933945066054934 0.5006394993605007 0.9999970000089999 9.99997000009e-07 9.99997000009e-07 9.99997000009e-07 0.994001011997976 0.005996988006023988 9.99998000004e-07 9.99998000004e-07 3.3e-05 0.118929 0.761297 0.119741 9.99997000009e-07 9.99997000009e-07 9.99997000009e-07 0.9999970000089999 9.99998000004e-07 9.99998000004e-07 0.005927988144023712 0.9940700118599762 0.9999660000679998 3.1999936000128e-05 9.99998000004e-07 9.99998000004e-07 0.4999515000485 0.4940785059214941 0.005968994031005969 9.999990000010001e-07 9.999990000010001e-07 9.99999000001e-06 0.03975196024803975 0.9602370397629603 9.99997000009e-07 9.99997000009e-07 9.99997000009e-07 0.9999970000089999 9.99997000009e-07 9.99997000009e-07 9.99997000009e-07 0.9999970000089999 0.332771 0.333474 0.293611 0.040144 0.002004 0.166504 0.331437 0.500055</probabilities>
		</cpt>
		<cpt id="T_sa_recently_calibrated_" dynamic="plate">
			<state id="Yes" />
			<state id="No" />
			<probabilities>0.5 0.5</probabilities>
		</cpt>
		<cpt id="T_sa_sensor_fault_i" dynamic="anchor">
			<state id="Accurate" />
			<state id="High_severe" />
			<state id="High_mild" />
			<state id="Low_severe" />
			<state id="Low_mild" />
			<probabilities>0.7 0.03 0.12 0.03 0.12</probabilities>
		</cpt>
		<cpt id="T_sa_sensor_fault" dynamic="plate">
			<state id="Accurate" />
			<state id="High_severe" />
			<state id="High_mild" />
			<state id="Low_severe" />
			<state id="Low_mild" />
			<parents>T_sa_sensor_fault_i</parents>
			<probabilities>1 0 0 0 0 0 1 0 0 0 0 0 1 0 0 0 0 0 1 0 0 0 0 0 1</probabilities>
		</cpt>
		<cpt id="T_sa_sensor" dynamic="plate">
			<state id="s1_below_11" />
			<state id="s2_11_12" />
			<state id="s3_12_13" />
			<state id="s4_13_14" />
			<state id="s5_14_up" />
			<parents>T_sa T_sa_sensor_fault</parents>
			<probabilities>0.9508109837803244 0.04817903641927161 0.000989980200395992 9.99980000399992e-06 9.99980000399992e-06 0.25327 0.24853 0.24892 0.199 0.05028 0.62434 0.24045 0.12468 0.01052 1e-05 0.999960001599936 9.99960001599936e-06 9.99960001599936e-06 9.99960001599936e-06 9.99960001599936e-06 0.999910002699919 5.999820005399838e-05 9.99970000899973e-06 9.99970000899973e-06 9.99970000899973e-06 0.1965080349196508 0.6094139058609414 0.1896181038189618 0.004449955500444996 9.999900000999991e-06 9.999900000999991e-06 9.999900000999991e-06 0.004109958900410996 0.1889181108188918 0.8069519304806952 0.00011 0.04084 0.45897 0.459 0.04108 0.999960001599936 9.99960001599936e-06 9.99960001599936e-06 9.99960001599936e-06 9.99960001599936e-06 0.9585208295834083 0.04122917541649167 0.0002299954000919982 9.99980000399992e-06 9.99980000399992e-06 0.00432 0.18914 0.6117899999999999 0.19078 0.00397 9.99980000399992e-06 9.99980000399992e-06 9.99980000399992e-06 0.004229915401691966 0.995740085198296 9.999900000999991e-06 0.0001799982000179998 0.04150958490415096 0.4600653993460065 0.4982350176498235 0.9955001349959501 0.004469865904022879 9.99970000899973e-06 9.99970000899973e-06 9.99970000899973e-06 0.5013249867501325 0.4586854131458685 0.03984960150398496 0.0001299987000129999 9.999900000999991e-06 9.999900000999991e-06 0.004449955500444996 0.1906580934190658 0.6086239137608624 0.1962580374196258 9.99960001599936e-06 9.99960001599936e-06 9.99960001599936e-06 9.99960001599936e-06 0.999960001599936 9.99980000399992e-06 9.99980000399992e-06 0.0002099958000839983 0.04233915321693566 0.9574308513829723 0.8047539049219016 0.1909361812763745 0.004289914201715966 9.99980000399992e-06 9.99980000399992e-06 0.04109 0.45816 0.45794 0.04261 0.0002 9.99980000399992e-06 9.99980000399992e-06 0.0003499930001399972 0.01959960800783984 0.9800303993920122 9.99960001599936e-06 9.99960001599936e-06 9.99960001599936e-06 9.99960001599936e-06 0.999960001599936 9.99970000899973e-06 9.99970000899973e-06 9.99970000899973e-06 1.999940001799946e-05 0.9999500014999551 0.01966 0.08058999999999999 0.0999 0.10066 0.69919 9.999900000999991e-06 0.004009959900400996 0.04994950050499495 0.0975390246097539 0.8484915150848491</probabilities>
		</cpt>
		<cpt id="T_rw_recently_calibrated_" dynamic="plate">
			<state id="Yes" />
			<state id="No" />
			<probabilities>0.5 0.5</probabilities>
		</cpt>
		<cpt id="T_rw_sensor_fault_i" dynamic="anchor">
			<state id="Accurate" />
			<state id="High_severe" />
			<state id="High_mild" />
			<state id="Low_severe" />
			<state id="Low_mild" />
			<probabilities>0.7 0.03 0.12 0.03 0.12</probabilities>
		</cpt>
		<cpt id="T_rw_sensor_fault" dynamic="plate">
			<state id="Accurate" />
			<state id="High_severe" />
			<state id="High_mild" />
			<state id="Low_severe" />
			<state id="Low_mild" />
			<parents>T_rw_sensor_fault_i</parents>
			<probabilities>1 0 0 0 0 0 1 0 0 0 0 0 1 0 0 0 0 0 1 0 0 0 0 0 1</probabilities>
		</cpt>
		<cpt id="T_rw_sensor" dynamic="plate">
			<state id="s1_below_18" />
			<state id="s2_18_19" />
			<state id="s3_19_20" />
			<state id="s4_20_21" />
			<state id="s5_up_21" />
			<parents>T_rw T_rw_sensor_fault</parents>
			<probabilities>0.9775304493910122 0.02200955980880382 0.0004399912001759965 9.99980000399992e-06 9.99980000399992e-06 0.5567800000000001 0.11211 0.10978 0.11071 0.11062 0.7774 0.11051 0.09002 0.02161 0.00046 0.999960001599936 9.99960001599936e-06 9.99960001599936e-06 9.99960001599936e-06 9.99960001599936e-06 0.999960001599936 9.99960001599936e-06 9.99960001599936e-06 9.99960001599936e-06 9.99960001599936e-06 0.1952180478195218 0.6114238857611424 0.1889081109188908 0.004439955600443996 9.999900000999991e-06 9.99970000899973e-06 9.99970000899973e-06 9.99970000899973e-06 0.004199874003779886 0.9957701268961932 9.999900000999991e-06 0.004279957200427995 0.1918680813191868 0.6069239307606924 0.1969180308196918 0.999960001599936 9.99960001599936e-06 9.99960001599936e-06 9.99960001599936e-06 9.99960001599936e-06 0.9958400831983361 0.004119917601647967 1.999960000799984e-05 9.99980000399992e-06 9.99980000399992e-06 0.00461 0.19174 0.60826 0.19118 0.00421 9.99970000899973e-06 9.99970000899973e-06 9.99970000899973e-06 1.999940001799946e-05 0.9999500014999551 9.99980000399992e-06 9.99980000399992e-06 0.004309913801723965 0.1931161376772464 0.8025539489210216 0.999960001599936 9.99960001599936e-06 9.99960001599936e-06 9.99960001599936e-06 9.99960001599936e-06 0.8030539389212216 0.1922561548769025 0.004669906601867962 9.99980000399992e-06 9.99980000399992e-06 9.999900000999991e-06 0.004469955300446996 0.1915680843191568 0.6068939310606893 0.1970580294197058 9.99960001599936e-06 9.99960001599936e-06 9.99960001599936e-06 9.99960001599936e-06 0.999960001599936 9.99970000899973e-06 9.99970000899973e-06 9.99970000899973e-06 0.00408987730368089 0.9958801235962921 0.9954300913981721 0.004539909201815964 9.99980000399992e-06 9.99980000399992e-06 9.99980000399992e-06 0.1953880461195388 0.6075239247607523 0.1926980730192698 0.004379956200437996 9.999900000999991e-06 9.999900000999991e-06 9.999900000999991e-06 0.0005499945000549994 0.02765972340276597 0.971770282297177 9.99960001599936e-06 9.99960001599936e-06 9.99960001599936e-06 9.99960001599936e-06 0.999960001599936 9.99960001599936e-06 9.99960001599936e-06 9.99960001599936e-06 9.99960001599936e-06 0.999960001599936 0.14317 0.14147 0.14311 0.14405 0.4282 0.00058 0.02782 0.11417 0.1413 0.71613</probabilities>
		</cpt>
		<cpt id="T_z_f" dynamic="terminal">
			<state id="s1_below_19" />
			<state id="s2_19_20" />
			<state id="s3_20_21" />
			<state id="s4_21_up" />
			<parents>T_z</parents>
			<probabilities>1 0 0 0 0 1 0 0 0 0 1 0 0 0 0 1</probabilities>
		</cpt>
		<cpt id="T_w_f" dynamic="terminal">
			<state id="s1_below_19" />
			<state id="s2_19_20" />
			<state id="s3_20_21" />
			<state id="s4_21_up" />
			<parents>T_w</parents>
			<probabilities>1 0 0 0 0 1 0 0 0 0 1 0 0 0 0 1</probabilities>
		</cpt>
		<cpt id="T_rw_f" dynamic="terminal">
			<state id="s1_below_18" />
			<state id="s2_18_19" />
			<state id="s3_19_20" />
			<state id="s4_20_21" />
			<state id="s5_up_21" />
			<parents>T_rw</parents>
			<probabilities>1 0 0 0 0 0 1 0 0 0 0 0 1 0 0 0 0 0 1 0 0 0 0 0 1</probabilities>
		</cpt>
		<cpt id="T_sa_f" dynamic="terminal">
			<state id="s1_below_11" />
			<state id="s2_11_12" />
			<state id="s3_12_13" />
			<state id="s4_13_14" />
			<state id="s5_14_up" />
			<parents>T_sa</parents>
			<probabilities>1 0 0 0 0 0 1 0 0 0 0 0 1 0 0 0 0 0 1 0 0 0 0 0 1</probabilities>
		</cpt>
		<cpt id="T_z_sensor_fault_f" dynamic="terminal">
			<state id="Accurate" />
			<state id="High_severe" />
			<state id="High_mild" />
			<state id="Low_severe" />
			<state id="Low_mild" />
			<parents>T_z_sensor_fault</parents>
			<probabilities>1 0 0 0 0 0 1 0 0 0 0 0 1 0 0 0 0 0 1 0 0 0 0 0 1</probabilities>
		</cpt>
		<cpt id="T_rw_sensor_fault_f" dynamic="terminal">
			<state id="Accurate" />
			<state id="High_severe" />
			<state id="High_mild" />
			<state id="Low_severe" />
			<state id="Low_mild" />
			<parents>T_rw_sensor_fault</parents>
			<probabilities>1 0 0 0 0 0 1 0 0 0 0 0 1 0 0 0 0 0 1 0 0 0 0 0 1</probabilities>
		</cpt>
		<cpt id="T_sa_sensor_fault_f" dynamic="terminal">
			<state id="Accurate" />
			<state id="High_severe" />
			<state id="High_mild" />
			<state id="Low_severe" />
			<state id="Low_mild" />
			<parents>T_sa_sensor_fault</parents>
			<probabilities>1 0 0 0 0 0 1 0 0 0 0 0 1 0 0 0 0 0 1 0 0 0 0 0 1</probabilities>
		</cpt>
		<cpt id="Q_ig" dynamic="plate">
			<state id="s1_below_10000" />
			<state id="s2_10000_40000" />
			<state id="s3_40000_60000" />
			<probabilities>0.458210084611681 0.275985416523354 0.265804498864965</probabilities>
		</cpt>
		<cpt id="T_sw" dynamic="plate">
			<state id="s1_below_5" />
			<state id="s2_5_6" />
			<state id="s3_up_6" />
			<probabilities>0.110339134621999 0.70358395817569 0.186076907202311</probabilities>
		</cpt>
		<cpt id="T_o_sensor" dynamic="plate">
			<state id="s1_below_22" />
			<state id="s2_22_25" />
			<state id="s3_25_29" />
			<state id="s4_up_29" />
			<parents>T_o</parents>
			<probabilities>0.9545520908958182 0.04544590910818178 9.99998000004e-07 9.99998000004e-07 0.09163590836409163 0.8171841828158172 0.09117890882109118 9.999990000010001e-07 1e-06 0.090444 0.818513 0.091042 9.999990000010001e-07 9.999990000010001e-07 0.02874597125402874 0.9712520287479712</probabilities>
		</cpt>
		<cpt id="m_sa_sensor" dynamic="plate">
			<state id="s1_below_12" />
			<state id="s2_12_13" />
			<state id="s3_13_14" />
			<state id="s4_14_15" />
			<state id="s5_15_17" />
			<state id="s6_17_up" />
			<parents>m_sa</parents>
			<probabilities>0.9968520125919497 0.003143987424050304 9.999960000159999e-07 9.999960000159999e-07 9.999960000159999e-07 9.999960000159999e-07 0.03850088449734651 0.9201962394112818 0.0412998761003717 9.99997000009e-07 9.99997000009e-07 9.99997000009e-07 9.99997000009e-07 0.04184787445637663 0.9133802598592204 0.04476886569340292 9.99997000009e-07 9.99997000009e-07 9.99997000009e-07 9.99997000009e-07 0.04501186496440511 0.9077332768001696 0.04725185824442527 9.99997000009e-07 9.99997000009e-07 9.99997000009e-07 9.99997000009e-07 0.02399592801221596 0.9491081526755419 0.02689291932124204 9.999960000159999e-07 9.999960000159999e-07 9.999960000159999e-07 9.999960000159999e-07 0.006845972616109535 0.9931500273998904</probabilities>
		</cpt>
		<cpt id="m_sw_sensor" dynamic="plate">
			<state id="s1_0_20" />
			<state id="s2_20_40" />
			<state id="s3_40_50" />
			<state id="s4_50_60" />
			<state id="s5_60_80" />
			<state id="s6_80_100" />
			<parents>m_sw</parents>
			<probabilities>0.9920403183872645 0.007919683212671494 9.99960001599936e-06 9.99960001599936e-06 9.99960001599936e-06 9.99960001599936e-06 0.008189754307370779 0.9761807145785626 0.01559953201403958 9.99970000899973e-06 9.99970000899973e-06 9.99970000899973e-06 9.99970000899973e-06 0.03172904812855614 0.9288021359359219 0.03943881683549493 9.99970000899973e-06 9.99970000899973e-06 9.99970000899973e-06 9.99970000899973e-06 0.03944881653550394 0.9132926012219633 0.04722858314250573 9.99970000899973e-06 9.99970000899973e-06 9.99970000899973e-06 9.99970000899973e-06 0.02447926562203134 0.9449116526504205 0.03057908262752117 1.040994357810581e-05 1.040994357810581e-05 1.040994357810581e-05 1.040994357810581e-05 0.03482126126876392 0.9651370989569237</probabilities>
		</cpt>
		<cpt id="T_sw_sensor" dynamic="plate">
			<state id="s1_below_5" />
			<state id="s2_5_6" />
			<state id="s3_up_6" />
			<parents>T_sw</parents>
			<probabilities>0.940492 0.05949 1.8e-05 0.120056 0.759911 0.120033 2.8e-05 0.119614 0.880358</probabilities>
		</cpt>
	</nodes>
	<dynamic numslices="2">
		<cpt id="T_z" order="1">
			<parents>T_z T_w m_sa T_sa T_o Q_rad Q_ig</parents>
			<probabilities>0.9732566858285429 0.02649337665583604 0.0001249687578105474 0.0001249687578105474 0.9757560609847538 0.02399400149962509 0.0001249687578105474 0.0001249687578105474 0.9722569357660585 0.02749312671832042 0.0001249687578105474 0.0001249687578105474 0.9757560609847538 0.02399400149962509 0.0001249687578105474 0.0001249687578105474 0.9723819045238691 0.02736815796050987 0.0001249687578105474 0.0001249687578105474 0.9726318420394902 0.02711822044488878 0.0001249687578105474 0.0001249687578105474 0.9731317170707323 0.02661834541364659 0.0001249687578105474 0.0001249687578105474 0.9741314671332167 0.02561859535116221 0.0001249687578105474 0.0001249687578105474 0.9738815296175956 0.0258685328667833 0.0001249687578105474 0.0001249687578105474 0.9706323419145214 0.02911772056985754 0.0001249687578105474 0.0001249687578105474 0.9728817795551112 0.02686828292926768 0.0001249687578105474 0.0001249687578105474 0.9721319670082479 0.02761809547613097 0.0001249687578105474 0.0001249687578105474 0.9760059985003749 0.023744063984004 0.0001249687578105474 0.0001249687578105474 0.9756310922269432 0.02411897025743564 0.0001249687578105474 0.0001249687578105474 0.9755061234691327 0.02424393901524619 0.0001249687578105474 0.0001249687578105474 0.9753811547113221 0.02436890777305674 0.0001249687578105474 0.0001249687578105474 0.9772556860784803 0.02249437640589853 0.0001249687578105474 0.0001249687578105474 0.9761309672581855 0.02361909522619345 0.0001249687578105474 0.0001249687578105474 0.9756310922269432 0.02411897025743564 0.0001249687578105474 0.0001249687578105474 0.9757560609847538 0.02399400149962509 0.0001249687578105474 0.0001249687578105474 0.9712571857035741 0.0284928767808048 0.0001249687578105474 0.0001249687578105474 0.9753811547113221 0.02436890777305674 0.0001249687578105474 0.0001249687578105474 0.9768807798050487 0.02286928267933017 0.0001249687578105474 0.0001249687578105474 0.9712571857035741 0.0284928767808048 0.0001249687578105474 0.0001249687578105474 0.9786303424143964 0.0211197200699825 0.0001249687578105474 0.0001249687578105474 0.9761309672581855 0.02361909522619345 0.0001249687578105474 0.0001249687578105474 0.9747563109222694 0.02499375156210947 0.0001249687578105474 0.0001249687578105474 0.9730067483129218 0.02674331417145714 0.0001249687578105474 0.0001249687578105474 0.9741314671332167 0.02561859535116221 0.0001249687578105474 0.0001249687578105474 0.9761309672581855 0.02361909522619345 0.0001249687578105474 0.0001249687578105474 0.9791302174456386 0.02061984503874031 0.0001249687578105474 0.0001249687578105474 0.9751312171957011 0.02461884528867783 0.0001249687578105474 0.0001249687578105474 0.9750062484378905 0.02474381404648838 0.0001249687578105474 0.0001249687578105474 0.9766308422894276 0.02311922019495126 0.0001249687578105474 0.0001249687578105474 0.9728817795551112 0.02686828292926768 0.0001249687578105474 0.0001249687578105474 0.9763809047738066 0.02336915771057236 0.0001249687578105474 0.0001249687578105474 0.9811297175706073 0.01862034491377156 0.0001249687578105474 0.0001249687578105474 0.980129967508123 0.01962009497625593 0.0001249687578105474 0.0001249687578105474 0.9753811547113221 0.02436890777305674 0.0001249687578105474 0.0001249687578105474 0.9782554361409648 0.02149462634341415 0.0001249687578105474 0.0001249687578105474 0.9798800299925019 0.01987003249187703 0.0001249687578105474 0.0001249687578105474 0.9783804048987753 0.0213696575856036 0.0001249687578105474 0.0001249687578105474 0.9817545613596601 0.01799550112471882 0.0001249687578105474 0.0001249687578105474 0.9772556860784803 0.02249437640589853 0.0001249687578105474 0.0001249687578105474 0.9780054986253437 0.02174456385903524 0.0001249687578105474 0.0001249687578105474 0.9768807798050487 0.02286928267933017 0.0001249687578105474 0.0001249687578105474 0.9770057485628593 0.02274431392151962 0.0001249687578105474 0.0001249687578105474 0.9738815296175956 0.0258685328667833 0.0001249687578105474 0.0001249687578105474 0.9726318420394902 0.02711822044488878 0.0001249687578105474 0.0001249687578105474 0.9751312171957011 0.02461884528867783 0.0001249687578105474 0.0001249687578105474 0.9740064983754061 0.02574356410897276 0.0001249687578105474 0.0001249687578105474 0.9716320919770057 0.02811797050737316 0.0001249687578105474 0.0001249687578105474 0.9753811547113221 0.02436890777305674 0.0001249687578105474 0.0001249687578105474 0.9717570607348163 0.02799300174956261 0.0001249687578105474 0.0001249687578105474 0.9753811547113221 0.02436890777305674 0.0001249687578105474 0.0001249687578105474 0.969632591852037 0.03011747063234192 0.0001249687578105474 0.0001249687578105474 0.9730067483129218 0.02674331417145714 0.0001249687578105474 0.0001249687578105474 0.9730067483129218 0.02674331417145714 0.0001249687578105474 0.0001249687578105474 0.9686328417895526 0.03111722069482629 0.0001249687578105474 0.0001249687578105474 0.9675081229692577 0.03224193951512122 0.0001249687578105474 0.0001249687578105474 0.976255936015996 0.02349412646838291 0.0001249687578105474 0.0001249687578105474 0.9760059985003749 0.023744063984004 0.0001249687578105474 0.0001249687578105474 0.9732566858285429 0.02649337665583604 0.0001249687578105474 0.0001249687578105474 0.9746313421644589 0.02511872031992002 0.0001249687578105474 0.0001249687578105474 0.9788802799300175 0.02086978255436141 0.0001249687578105474 0.0001249687578105474 0.9738815296175956 0.0258685328667833 0.0001249687578105474 0.0001249687578105474 0.9756310922269432 0.02411897025743564 0.0001249687578105474 0.0001249687578105474 0.973756560859785 0.02599350162459385 0.0001249687578105474 0.0001249687578105474 0.9732566858285429 0.02649337665583604 0.0001249687578105474 0.0001249687578105474 0.9733816545863534 0.02636840789802549 0.0001249687578105474 0.0001249687578105474 0.9705073731567109 0.02924268932766808 0.0001249687578105474 0.0001249687578105474 0.9731317170707323 0.02661834541364659 0.0001249687578105474 0.0001249687578105474 0.9775056235941014 0.02224443889027743 0.0001249687578105474 0.0001249687578105474 0.9713821544613847 0.02836790802299425 0.0001249687578105474 0.0001249687578105474 0.9757560609847538 0.02399400149962509 0.0001249687578105474 0.0001249687578105474 0.9732566858285429 0.02649337665583604 0.0001249687578105474 0.0001249687578105474 0.9750062484378905 0.02474381404648838 0.0001249687578105474 0.0001249687578105474 0.9727568107973007 0.02699325168707823 0.0001249687578105474 0.0001249687578105474 0.9778805298675332 0.02186953261684579 0.0001249687578105474 0.0001249687578105474 0.9730067483129218 0.02674331417145714 0.0001249687578105474 0.0001249687578105474 0.9742564358910273 0.02549362659335166 0.0001249687578105474 0.0001249687578105474 0.9725068732816796 0.02724318920269932 0.0001249687578105474 0.0001249687578105474 0.9745063734066484 0.02524368907773057 0.0001249687578105474 0.0001249687578105474 0.9690077480629843 0.03074231442139465 0.0001249687578105474 0.0001249687578105474 0.9751312171957011 0.02461884528867783 0.0001249687578105474 0.0001249687578105474 0.9772556860784803 0.02249437640589853 0.0001249687578105474 0.0001249687578105474 0.9767558110472382 0.02299425143714072 0.0001249687578105474 0.0001249687578105474 0.9777555611097226 0.02199450137465634 0.0001249687578105474 0.0001249687578105474 0.9788802799300175 0.02086978255436141 0.0001249687578105474 0.0001249687578105474 0.9742564358910273 0.02549362659335166 0.0001249687578105474 0.0001249687578105474 0.976255936015996 0.02349412646838291 0.0001249687578105474 0.0001249687578105474 0.9778805298675332 0.02186953261684579 0.0001249687578105474 0.0001249687578105474 0.9740064983754061 0.02574356410897276 0.0001249687578105474 0.0001249687578105474 0.9765058735316171 0.02324418895276181 0.0001249687578105474 0.0001249687578105474 0.9778805298675332 0.02186953261684579 0.0001249687578105474 0.0001249687578105474 0.97488127968008 0.02486878280429893 0.0001249687578105474 0.0001249687578105474 0.9722569357660585 0.02749312671832042 0.0001249687578105474 0.0001249687578105474 0.9695076230942264 0.03024243939015246 0.0001249687578105474 0.0001249687578105474 0.9715071232191952 0.0282429392651837 0.0001249687578105474 0.0001249687578105474 0.9721319670082479 0.02761809547613097 0.0001249687578105474 0.0001249687578105474 0.9700074981254686 0.02974256435891027 0.0001249687578105474 0.0001249687578105474 0.9728817795551112 0.02686828292926768 0.0001249687578105474 0.0001249687578105474 0.973756560859785 0.02599350162459385 0.0001249687578105474 0.0001249687578105474 0.9717570607348163 0.02799300174956261 0.0001249687578105474 0.0001249687578105474 0.9722569357660585 0.02749312671832042 0.0001249687578105474 0.0001249687578105474 0.9715071232191952 0.0282429392651837 0.0001249687578105474 0.0001249687578105474 0.9711322169457636 0.02861784553861535 0.0001249687578105474 0.0001249687578105474 0.970757310672332 0.02899275181204699 0.0001249687578105474 0.0001249687578105474 0.9751312171957011 0.02461884528867783 0.0001249687578105474 0.0001249687578105474 0.9708822794301425 0.02886778305423644 0.0001249687578105474 0.0001249687578105474 0.9720069982504373 0.02774306423394151 0.0001249687578105474 0.0001249687578105474 0.9741314671332167 0.02561859535116221 0.0001249687578105474 0.0001249687578105474 0.9756310922269432 0.02411897025743564 0.0001249687578105474 0.0001249687578105474 0.9735066233441639 0.02624343914021495 0.0001249687578105474 0.0001249687578105474 0.9745063734066484 0.02524368907773057 0.0001249687578105474 0.0001249687578105474 0.9723819045238691 0.02736815796050987 0.0001249687578105474 0.0001249687578105474 0.9711322169457636 0.02861784553861535 0.0001249687578105474 0.0001249687578105474 0.9733816545863534 0.02636840789802549 0.0001249687578105474 0.0001249687578105474 0.9751312171957011 0.02461884528867783 0.0001249687578105474 0.0001249687578105474 0.9715071232191952 0.0282429392651837 0.0001249687578105474 0.0001249687578105474 0.9805048737815546 0.0192451887028243 0.0001249687578105474 0.0001249687578105474 0.9755061234691327 0.02424393901524619 0.0001249687578105474 0.0001249687578105474 0.9713821544613847 0.02836790802299425 0.0001249687578105474 0.0001249687578105474 0.9733816545863534 0.02636840789802549 0.0001249687578105474 0.0001249687578105474 0.9772556860784803 0.02249437640589853 0.0001249687578105474 0.0001249687578105474 0.9767558110472382 0.02299425143714072 0.0001249687578105474 0.0001249687578105474 0.9741314671332167 0.02561859535116221 0.0001249687578105474 0.0001249687578105474 0.9770057485628593 0.02274431392151962 0.0001249687578105474 0.0001249687578105474 0.9721319670082479 0.02761809547613097 0.0001249687578105474 0.0001249687578105474 0.9721319670082479 0.02761809547613097 0.0001249687578105474 0.0001249687578105474 0.9728817795551112 0.02686828292926768 0.0001249687578105474 0.0001249687578105474 0.9743814046488378 0.02536865783554111 0.0001249687578105474 0.0001249687578105474 0.9778805298675332 0.02186953261684579 0.0001249687578105474 0.0001249687578105474 0.976255936015996 0.02349412646838291 0.0001249687578105474 0.0001249687578105474 0.9753811547113221 0.02436890777305674 0.0001249687578105474 0.0001249687578105474 0.9763809047738066 0.02336915771057236 0.0001249687578105474 0.0001249687578105474 0.9760059985003749 0.023744063984004 0.0001249687578105474 0.0001249687578105474 0.976255936015996 0.02349412646838291 0.0001249687578105474 0.0001249687578105474 0.9763809047738066 0.02336915771057236 0.0001249687578105474 0.0001249687578105474 0.9772556860784803 0.02249437640589853 0.0001249687578105474 0.0001249687578105474 0.976255936015996 0.02349412646838291 0.0001249687578105474 0.0001249687578105474 0.9756310922269432 0.02411897025743564 0.0001249687578105474 0.0001249687578105474 0.9776305923519121 0.02211947013246688 0.0001249687578105474 0.0001249687578105474 0.9763809047738066 0.02336915771057236 0.0001249687578105474 0.0001249687578105474 0.9717570607348163 0.02799300174956261 0.0001249687578105474 0.0001249687578105474 0.9747563109222694 0.02499375156210947 0.0001249687578105474 0.0001249687578105474 0.9675081229692577 0.03224193951512122 0.0001249687578105474 0.0001249687578105474 0.9730067483129218 0.02674331417145714 0.0001249687578105474 0.0001249687578105474 0.9727568107973007 0.02699325168707823 0.0001249687578105474 0.0001249687578105474 0.9747563109222694 0.02499375156210947 0.0001249687578105474 0.0001249687578105474 0.9747563109222694 0.02499375156210947 0.0001249687578105474 0.0001249687578105474 0.9723819045238691 0.02736815796050987 0.0001249687578105474 0.0001249687578105474 0.9722569357660585 0.02749312671832042 0.0001249687578105474 0.0001249687578105474 0.9717570607348163 0.02799300174956261 0.0001249687578105474 0.0001249687578105474 0.9672581854536366 0.03249187703074231 0.0001249687578105474 0.0001249687578105474 0.9677580604848788 0.03199200199950013 0.0001249687578105474 0.0001249687578105474 0.9745063734066484 0.02524368907773057 0.0001249687578105474 0.0001249687578105474 0.9750062484378905 0.02474381404648838 0.0001249687578105474 0.0001249687578105474 0.9736315921019745 0.0261184703824044 0.0001249687578105474 0.0001249687578105474 0.9740064983754061 0.02574356410897276 0.0001249687578105474 0.0001249687578105474 0.9736315921019745 0.0261184703824044 0.0001249687578105474 0.0001249687578105474 0.9735066233441639 0.02624343914021495 0.0001249687578105474 0.0001249687578105474 0.9758810297425644 0.02386903274181455 0.0001249687578105474 0.0001249687578105474 0.9755061234691327 0.02424393901524619 0.0001249687578105474 0.0001249687578105474 0.9732566858285429 0.02649337665583604 0.0001249687578105474 0.0001249687578105474 0.9721319670082479 0.02761809547613097 0.0001249687578105474 0.0001249687578105474 0.9723819045238691 0.02736815796050987 0.0001249687578105474 0.0001249687578105474 0.9721319670082479 0.02761809547613097 0.0001249687578105474 0.0001249687578105474 0.9756310922269432 0.02411897025743564 0.0001249687578105474 0.0001249687578105474 0.9763809047738066 0.02336915771057236 0.0001249687578105474 0.0001249687578105474 0.9732566858285429 0.02649337665583604 0.0001249687578105474 0.0001249687578105474 0.9757560609847538 0.02399400149962509 0.0001249687578105474 0.0001249687578105474 0.9773806548362909 0.02236940764808798 0.0001249687578105474 0.0001249687578105474 0.9726318420394902 0.02711822044488878 0.0001249687578105474 0.0001249687578105474 0.9716320919770057 0.02811797050737316 0.0001249687578105474 0.0001249687578105474 0.9735066233441639 0.02624343914021495 0.0001249687578105474 0.0001249687578105474 0.9721319670082479 0.02761809547613097 0.0001249687578105474 0.0001249687578105474 0.9732566858285429 0.02649337665583604 0.0001249687578105474 0.0001249687578105474 0.9723819045238691 0.02736815796050987 0.0001249687578105474 0.0001249687578105474 0.9728817795551112 0.02686828292926768 0.0001249687578105474 0.0001249687578105474 0.9757560609847538 0.02399400149962509 0.0001249687578105474 0.0001249687578105474 0.9771307173206698 0.02261934516370907 0.0001249687578105474 0.0001249687578105474 0.9746313421644589 0.02511872031992002 0.0001249687578105474 0.0001249687578105474 0.9767558110472382 0.02299425143714072 0.0001249687578105474 0.0001249687578105474 0.9765058735316171 0.02324418895276181 0.0001249687578105474 0.0001249687578105474 0.9758810297425644 0.02386903274181455 0.0001249687578105474 0.0001249687578105474 0.9781304673831542 0.02161959510122469 0.0001249687578105474 0.0001249687578105474 0.9783804048987753 0.0213696575856036 0.0001249687578105474 0.0001249687578105474 0.9765058735316171 0.02324418895276181 0.0001249687578105474 0.0001249687578105474 0.976255936015996 0.02349412646838291 0.0001249687578105474 0.0001249687578105474 0.9756310922269432 0.02411897025743564 0.0001249687578105474 0.0001249687578105474 0.9732566858285429 0.02649337665583604 0.0001249687578105474 0.0001249687578105474 0.9708822794301425 0.02886778305423644 0.0001249687578105474 0.0001249687578105474 0.9727568107973007 0.02699325168707823 0.0001249687578105474 0.0001249687578105474 0.9711322169457636 0.02861784553861535 0.0001249687578105474 0.0001249687578105474 0.971007248187953 0.02874281429642589 0.0001249687578105474 0.0001249687578105474 0.9675081229692577 0.03224193951512122 0.0001249687578105474 0.0001249687578105474 0.9721319670082479 0.02761809547613097 0.0001249687578105474 0.0001249687578105474 0.9680079980004999 0.03174206448387903 0.0001249687578105474 0.0001249687578105474 0.9730067483129218 0.02674331417145714 0.0001249687578105474 0.0001249687578105474 0.9735066233441639 0.02624343914021495 0.0001249687578105474 0.0001249687578105474 0.9701324668832791 0.02961759560109973 0.0001249687578105474 0.0001249687578105474 0.96575856035991 0.03399150212446888 0.0001249687578105474 0.0001249687578105474 0.9670082479380155 0.03274181454636341 0.0001249687578105474 0.0001249687578105474 0.97488127968008 0.02486878280429893 0.0001249687578105474 0.0001249687578105474 0.9721319670082479 0.02761809547613097 0.0001249687578105474 0.0001249687578105474 0.9746313421644589 0.02511872031992002 0.0001249687578105474 0.0001249687578105474 0.9740064983754061 0.02574356410897276 0.0001249687578105474 0.0001249687578105474 0.9711322169457636 0.02861784553861535 0.0001249687578105474 0.0001249687578105474 0.9756310922269432 0.02411897025743564 0.0001249687578105474 0.0001249687578105474 0.9720069982504373 0.02774306423394151 0.0001249687578105474 0.0001249687578105474 0.9727568107973007 0.02699325168707823 0.0001249687578105474 0.0001249687578105474 0.9712571857035741 0.0284928767808048 0.0001249687578105474 0.0001249687578105474 0.9715071232191952 0.0282429392651837 0.0001249687578105474 0.0001249687578105474 0.9670082479380155 0.03274181454636341 0.0001249687578105474 0.0001249687578105474 0.9682579355161209 0.03149212696825793 0.0001249687578105474 0.0001249687578105474 0.9730067483129218 0.02674331417145714 0.0001249687578105474 0.0001249687578105474 0.973756560859785 0.02599350162459385 0.0001249687578105474 0.0001249687578105474 0.9756310922269432 0.02411897025743564 0.0001249687578105474 0.0001249687578105474 0.9722569357660585 0.02749312671832042 0.0001249687578105474 0.0001249687578105474 0.9713821544613847 0.02836790802299425 0.0001249687578105474 0.0001249687578105474 0.9723819045238691 0.02736815796050987 0.0001249687578105474 0.0001249687578105474 0.9740064983754061 0.02574356410897276 0.0001249687578105474 0.0001249687578105474 0.97488127968008 0.02486878280429893 0.0001249687578105474 0.0001249687578105474 0.9718820294926268 0.02786803299175206 0.0001249687578105474 0.0001249687578105474 0.9703824043989002 0.02936765808547863 0.0001249687578105474 0.0001249687578105474 0.9638840289927518 0.03586603349162709 0.0001249687578105474 0.0001249687578105474 0.9720069982504373 0.02774306423394151 0.0001249687578105474 0.0001249687578105474 0.9791302174456386 0.02061984503874031 0.0001249687578105474 0.0001249687578105474 0.9735066233441639 0.02624343914021495 0.0001249687578105474 0.0001249687578105474 0.9766308422894276 0.02311922019495126 0.0001249687578105474 0.0001249687578105474 0.976255936015996 0.02349412646838291 0.0001249687578105474 0.0001249687578105474 0.9740064983754061 0.02574356410897276 0.0001249687578105474 0.0001249687578105474 0.9726318420394902 0.02711822044488878 0.0001249687578105474 0.0001249687578105474 0.9741314671332167 0.02561859535116221 0.0001249687578105474 0.0001249687578105474 0.9760059985003749 0.023744063984004 0.0001249687578105474 0.0001249687578105474 0.9733816545863534 0.02636840789802549 0.0001249687578105474 0.0001249687578105474 0.9700074981254686 0.02974256435891027 0.0001249687578105474 0.0001249687578105474 0.9703824043989002 0.02936765808547863 0.0001249687578105474 0.0001249687578105474 0.9713821544613847 0.02836790802299425 0.0001249687578105474 0.0001249687578105474 0.9823794051487128 0.01737065733566608 0.0001249687578105474 0.0001249687578105474 0.9775056235941014 0.02224443889027743 0.0001249687578105474 0.0001249687578105474 0.9775056235941014 0.02224443889027743 0.0001249687578105474 0.0001249687578105474 0.9821294676330917 0.01762059485128718 0.0001249687578105474 0.0001249687578105474 0.9797550612346914 0.01999500124968758 0.0001249687578105474 0.0001249687578105474 0.9768807798050487 0.02286928267933017 0.0001249687578105474 0.0001249687578105474 0.9792551862034491 0.02049487628092977 0.0001249687578105474 0.0001249687578105474 0.9768807798050487 0.02286928267933017 0.0001249687578105474 0.0001249687578105474 0.9757560609847538 0.02399400149962509 0.0001249687578105474 0.0001249687578105474 0.9742564358910273 0.02549362659335166 0.0001249687578105474 0.0001249687578105474 0.9736315921019745 0.0261184703824044 0.0001249687578105474 0.0001249687578105474 0.9752561859535116 0.02449387653086728 0.0001249687578105474 0.0001249687578105474 0.981504623844039 0.01824543864033992 0.0001249687578105474 0.0001249687578105474 0.9820044988752812 0.01774556360909773 0.0001249687578105474 0.0001249687578105474 0.979005248687828 0.02074481379655086 0.0001249687578105474 0.0001249687578105474 0.9778805298675332 0.02186953261684579 0.0001249687578105474 0.0001249687578105474 0.9803799050237441 0.01937015746063484 0.0001249687578105474 0.0001249687578105474 0.979005248687828 0.02074481379655086 0.0001249687578105474 0.0001249687578105474 0.9785053736565859 0.02124468882779305 0.0001249687578105474 0.0001249687578105474 0.979005248687828 0.02074481379655086 0.0001249687578105474 0.0001249687578105474 0.9778805298675332 0.02186953261684579 0.0001249687578105474 0.0001249687578105474 0.9775056235941014 0.02224443889027743 0.0001249687578105474 0.0001249687578105474 0.976255936015996 0.02349412646838291 0.0001249687578105474 0.0001249687578105474 0.9771307173206698 0.02261934516370907 0.0001249687578105474 0.0001249687578105474 0.9802549362659335 0.01949512621844539 0.0001249687578105474 0.0001249687578105474 0.9846288427893026 0.01512121969507623 0.0001249687578105474 0.0001249687578105474 0.981504623844039 0.01824543864033992 0.0001249687578105474 0.0001249687578105474 0.9805048737815546 0.0192451887028243 0.0001249687578105474 0.0001249687578105474 0.9782554361409648 0.02149462634341415 0.0001249687578105474 0.0001249687578105474 0.9802549362659335 0.01949512621844539 0.0001249687578105474 0.0001249687578105474 0.9818795301174706 0.01787053236690827 0.0001249687578105474 0.0001249687578105474 0.9796300924768808 0.02011997000749812 0.0001249687578105474 0.0001249687578105474 0.9803799050237441 0.01937015746063484 0.0001249687578105474 0.0001249687578105474 0.9800049987503124 0.01974506373406648 0.0001249687578105474 0.0001249687578105474 0.9788802799300175 0.02086978255436141 0.0001249687578105474 0.0001249687578105474 0.9772556860784803 0.02249437640589853 0.0001249687578105474 0.0001249687578105474 0.9808797800549862 0.01887028242939265 0.0001249687578105474 0.0001249687578105474 0.9808797800549862 0.01887028242939265 0.0001249687578105474 0.0001249687578105474 0.9818795301174706 0.01787053236690827 0.0001249687578105474 0.0001249687578105474 0.9820044988752812 0.01774556360909773 0.0001249687578105474 0.0001249687578105474 0.9813796550862285 0.01837040739815046 0.0001249687578105474 0.0001249687578105474 0.9796300924768808 0.02011997000749812 0.0001249687578105474 0.0001249687578105474 0.9841289677580605 0.01562109472631842 0.0001249687578105474 0.0001249687578105474 0.9792551862034491 0.02049487628092977 0.0001249687578105474 0.0001249687578105474 0.9827543114221444 0.01699575106223444 0.0001249687578105474 0.0001249687578105474 0.9797550612346914 0.01999500124968758 0.0001249687578105474 0.0001249687578105474 0.9792551862034491 0.02049487628092977 0.0001249687578105474 0.0001249687578105474 0.9795051237190703 0.02024493876530867 0.0001249687578105474 0.0001249687578105474 0.9750062484378905 0.02474381404648838 0.0001249687578105474 0.0001249687578105474 0.9763809047738066 0.02336915771057236 0.0001249687578105474 0.0001249687578105474 0.976255936015996 0.02349412646838291 0.0001249687578105474 0.0001249687578105474 0.9791302174456386 0.02061984503874031 0.0001249687578105474 0.0001249687578105474 0.9781304673831542 0.02161959510122469 0.0001249687578105474 0.0001249687578105474 0.9755061234691327 0.02424393901524619 0.0001249687578105474 0.0001249687578105474 0.9785053736565859 0.02124468882779305 0.0001249687578105474 0.0001249687578105474 0.9767558110472382 0.02299425143714072 0.0001249687578105474 0.0001249687578105474 0.9747563109222694 0.02499375156210947 0.0001249687578105474 0.0001249687578105474 0.9765058735316171 0.02324418895276181 0.0001249687578105474 0.0001249687578105474 0.9751312171957011 0.02461884528867783 0.0001249687578105474 0.0001249687578105474 0.9760059985003749 0.023744063984004 0.0001249687578105474 0.0001249687578105474 0.9792551862034491 0.02049487628092977 0.0001249687578105474 0.0001249687578105474 0.9768807798050487 0.02286928267933017 0.0001249687578105474 0.0001249687578105474 0.973756560859785 0.02599350162459385 0.0001249687578105474 0.0001249687578105474 0.9746313421644589 0.02511872031992002 0.0001249687578105474 0.0001249687578105474 0.9797550612346914 0.01999500124968758 0.0001249687578105474 0.0001249687578105474 0.979005248687828 0.02074481379655086 0.0001249687578105474 0.0001249687578105474 0.9751312171957011 0.02461884528867783 0.0001249687578105474 0.0001249687578105474 0.9788802799300175 0.02086978255436141 0.0001249687578105474 0.0001249687578105474 0.9760059985003749 0.023744063984004 0.0001249687578105474 0.0001249687578105474 0.9763809047738066 0.02336915771057236 0.0001249687578105474 0.0001249687578105474 0.9766308422894276 0.02311922019495126 0.0001249687578105474 0.0001249687578105474 0.9725068732816796 0.02724318920269932 0.0001249687578105474 0.0001249687578105474 0.9796300924768808 0.02011997000749812 0.0001249687578105474 0.0001249687578105474 0.9812546863284179 0.01849537615596101 0.0001249687578105474 0.0001249687578105474 0.9778805298675332 0.02186953261684579 0.0001249687578105474 0.0001249687578105474 0.9785053736565859 0.02124468882779305 0.0001249687578105474 0.0001249687578105474 0.9775056235941014 0.02224443889027743 0.0001249687578105474 0.0001249687578105474 0.9775056235941014 0.02224443889027743 0.0001249687578105474 0.0001249687578105474 0.9785053736565859 0.02124468882779305 0.0001249687578105474 0.0001249687578105474 0.9795051237190703 0.02024493876530867 0.0001249687578105474 0.0001249687578105474 0.9777555611097226 0.02199450137465634 0.0001249687578105474 0.0001249687578105474 0.9782554361409648 0.02149462634341415 0.0001249687578105474 0.0001249687578105474 0.9726318420394902 0.02711822044488878 0.0001249687578105474 0.0001249687578105474 0.9733816545863534 0.02636840789802549 0.0001249687578105474 0.0001249687578105474 0.980129967508123 0.01962009497625593 0.0001249687578105474 0.0001249687578105474 0.9792551862034491 0.02049487628092977 0.0001249687578105474 0.0001249687578105474 0.9818795301174706 0.01787053236690827 0.0001249687578105474 0.0001249687578105474 0.9813796550862285 0.01837040739815046 0.0001249687578105474 0.0001249687578105474 0.9793801549612596 0.02036990752311922 0.0001249687578105474 0.0001249687578105474 0.9783804048987753 0.0213696575856036 0.0001249687578105474 0.0001249687578105474 0.9781304673831542 0.02161959510122469 0.0001249687578105474 0.0001249687578105474 0.9810047488127968 0.01874531367158211 0.0001249687578105474 0.0001249687578105474 0.9806298425393651 0.01912021994501375 0.0001249687578105474 0.0001249687578105474 0.9776305923519121 0.02211947013246688 0.0001249687578105474 0.0001249687578105474 0.9798800299925019 0.01987003249187703 0.0001249687578105474 0.0001249687578105474 0.976255936015996 0.02349412646838291 0.0001249687578105474 0.0001249687578105474 0.9765058735316171 0.02324418895276181 0.0001249687578105474 0.0001249687578105474 0.9746313421644589 0.02511872031992002 0.0001249687578105474 0.0001249687578105474 0.9772556860784803 0.02249437640589853 0.0001249687578105474 0.0001249687578105474 0.9743814046488378 0.02536865783554111 0.0001249687578105474 0.0001249687578105474 0.9772556860784803 0.02249437640589853 0.0001249687578105474 0.0001249687578105474 0.9717570607348163 0.02799300174956261 0.0001249687578105474 0.0001249687578105474 0.9756310922269432 0.02411897025743564 0.0001249687578105474 0.0001249687578105474 0.9742564358910273 0.02549362659335166 0.0001249687578105474 0.0001249687578105474 0.9755061234691327 0.02424393901524619 0.0001249687578105474 0.0001249687578105474 0.9728817795551112 0.02686828292926768 0.0001249687578105474 0.0001249687578105474 0.9763809047738066 0.02336915771057236 0.0001249687578105474 0.0001249687578105474 0.9712571857035741 0.0284928767808048 0.0001249687578105474 0.0001249687578105474 0.9780054986253437 0.02174456385903524 0.0001249687578105474 0.0001249687578105474 0.979005248687828 0.02074481379655086 0.0001249687578105474 0.0001249687578105474 0.9783804048987753 0.0213696575856036 0.0001249687578105474 0.0001249687578105474 0.9808797800549862 0.01887028242939265 0.0001249687578105474 0.0001249687578105474 0.9776305923519121 0.02211947013246688 0.0001249687578105474 0.0001249687578105474 0.9770057485628593 0.02274431392151962 0.0001249687578105474 0.0001249687578105474 0.9785053736565859 0.02124468882779305 0.0001249687578105474 0.0001249687578105474 0.9753811547113221 0.02436890777305674 0.0001249687578105474 0.0001249687578105474 0.976255936015996 0.02349412646838291 0.0001249687578105474 0.0001249687578105474 0.9735066233441639 0.02624343914021495 0.0001249687578105474 0.0001249687578105474 0.9758810297425644 0.02386903274181455 0.0001249687578105474 0.0001249687578105474 0.9720069982504373 0.02774306423394151 0.0001249687578105474 0.0001249687578105474 0.9767558110472382 0.02299425143714072 0.0001249687578105474 0.0001249687578105474 0.9798800299925019 0.01987003249187703 0.0001249687578105474 0.0001249687578105474 0.9778805298675332 0.02186953261684579 0.0001249687578105474 0.0001249687578105474 0.9806298425393651 0.01912021994501375 0.0001249687578105474 0.0001249687578105474 0.9751312171957011 0.02461884528867783 0.0001249687578105474 0.0001249687578105474 0.9757560609847538 0.02399400149962509 0.0001249687578105474 0.0001249687578105474 0.9778805298675332 0.02186953261684579 0.0001249687578105474 0.0001249687578105474 0.9760059985003749 0.023744063984004 0.0001249687578105474 0.0001249687578105474 0.9782554361409648 0.02149462634341415 0.0001249687578105474 0.0001249687578105474 0.9796300924768808 0.02011997000749812 0.0001249687578105474 0.0001249687578105474 0.9761309672581855 0.02361909522619345 0.0001249687578105474 0.0001249687578105474 0.9745063734066484 0.02524368907773057 0.0001249687578105474 0.0001249687578105474 0.9803799050237441 0.01937015746063484 0.0001249687578105474 0.0001249687578105474 0.9821294676330917 0.01762059485128718 0.0001249687578105474 0.0001249687578105474 0.979005248687828 0.02074481379655086 0.0001249687578105474 0.0001249687578105474 0.9786303424143964 0.0211197200699825 0.0001249687578105474 0.0001249687578105474 0.9780054986253437 0.02174456385903524 0.0001249687578105474 0.0001249687578105474 0.979005248687828 0.02074481379655086 0.0001249687578105474 0.0001249687578105474 0.9807548112971757 0.0189952511872032 0.0001249687578105474 0.0001249687578105474 0.9826293426643339 0.01712071982004499 0.0001249687578105474 0.0001249687578105474 0.9785053736565859 0.02124468882779305 0.0001249687578105474 0.0001249687578105474 0.9757560609847538 0.02399400149962509 0.0001249687578105474 0.0001249687578105474 0.9782554361409648 0.02149462634341415 0.0001249687578105474 0.0001249687578105474 0.9796300924768808 0.02011997000749812 0.0001249687578105474 0.0001249687578105474 0.9787553111722069 0.02099475131217196 0.0001249687578105474 0.0001249687578105474 0.9742564358910273 0.02549362659335166 0.0001249687578105474 0.0001249687578105474 0.9723819045238691 0.02736815796050987 0.0001249687578105474 0.0001249687578105474 0.9745063734066484 0.02524368907773057 0.0001249687578105474 0.0001249687578105474 0.9735066233441639 0.02624343914021495 0.0001249687578105474 0.0001249687578105474 0.9738815296175956 0.0258685328667833 0.0001249687578105474 0.0001249687578105474 0.9746313421644589 0.02511872031992002 0.0001249687578105474 0.0001249687578105474 0.9727568107973007 0.02699325168707823 0.0001249687578105474 0.0001249687578105474 0.9731317170707323 0.02661834541364659 0.0001249687578105474 0.0001249687578105474 0.9756310922269432 0.02411897025743564 0.0001249687578105474 0.0001249687578105474 0.9758810297425644 0.02386903274181455 0.0001249687578105474 0.0001249687578105474 0.9706323419145214 0.02911772056985754 0.0001249687578105474 0.0001249687578105474 0.9778805298675332 0.02186953261684579 0.0001249687578105474 0.0001249687578105474 0.9761309672581855 0.02361909522619345 0.0001249687578105474 0.0001249687578105474 0.9770057485628593 0.02274431392151962 0.0001249687578105474 0.0001249687578105474 0.9760059985003749 0.023744063984004 0.0001249687578105474 0.0001249687578105474 0.973756560859785 0.02599350162459385 0.0001249687578105474 0.0001249687578105474 0.9747563109222694 0.02499375156210947 0.0001249687578105474 0.0001249687578105474 0.9745063734066484 0.02524368907773057 0.0001249687578105474 0.0001249687578105474 0.9746313421644589 0.02511872031992002 0.0001249687578105474 0.0001249687578105474 0.9760059985003749 0.023744063984004 0.0001249687578105474 0.0001249687578105474 0.9758810297425644 0.02386903274181455 0.0001249687578105474 0.0001249687578105474 0.9735066233441639 0.02624343914021495 0.0001249687578105474 0.0001249687578105474 0.9738815296175956 0.0258685328667833 0.0001249687578105474 0.0001249687578105474 0.9756310922269432 0.02411897025743564 0.0001249687578105474 0.0001249687578105474 0.9781304673831542 0.02161959510122469 0.0001249687578105474 0.0001249687578105474 0.9776305923519121 0.02211947013246688 0.0001249687578105474 0.0001249687578105474 0.980129967508123 0.01962009497625593 0.0001249687578105474 0.0001249687578105474 0.9803799050237441 0.01937015746063484 0.0001249687578105474 0.0001249687578105474 0.9771307173206698 0.02261934516370907 0.0001249687578105474 0.0001249687578105474 0.9743814046488378 0.02536865783554111 0.0001249687578105474 0.0001249687578105474 0.9780054986253437 0.02174456385903524 0.0001249687578105474 0.0001249687578105474 0.9756310922269432 0.02411897025743564 0.0001249687578105474 0.0001249687578105474 0.9743814046488378 0.02536865783554111 0.0001249687578105474 0.0001249687578105474 0.9750062484378905 0.02474381404648838 0.0001249687578105474 0.0001249687578105474 0.9722569357660585 0.02749312671832042 0.0001249687578105474 0.0001249687578105474 0.980129967508123 0.01962009497625593 0.0001249687578105474 0.0001249687578105474 0.9783804048987753 0.0213696575856036 0.0001249687578105474 0.0001249687578105474 0.9782554361409648 0.02149462634341415 0.0001249687578105474 0.0001249687578105474 0.9802549362659335 0.01949512621844539 0.0001249687578105474 0.0001249687578105474 0.9792551862034491 0.02049487628092977 0.0001249687578105474 0.0001249687578105474 0.9810047488127968 0.01874531367158211 0.0001249687578105474 0.0001249687578105474 0.9778805298675332 0.02186953261684579 0.0001249687578105474 0.0001249687578105474 0.9782554361409648 0.02149462634341415 0.0001249687578105474 0.0001249687578105474 0.9795051237190703 0.02024493876530867 0.0001249687578105474 0.0001249687578105474 0.9776305923519121 0.02211947013246688 0.0001249687578105474 0.0001249687578105474 0.9750062484378905 0.02474381404648838 0.0001249687578105474 0.0001249687578105474 0.973756560859785 0.02599350162459385 0.0001249687578105474 0.0001249687578105474 0.970757310672332 0.02899275181204699 0.0001249687578105474 0.0001249687578105474 0.9711322169457636 0.02861784553861535 0.0001249687578105474 0.0001249687578105474 0.9715071232191952 0.0282429392651837 0.0001249687578105474 0.0001249687578105474 0.9742564358910273 0.02549362659335166 0.0001249687578105474 0.0001249687578105474 0.9697575606098475 0.02999250187453137 0.0001249687578105474 0.0001249687578105474 0.9686328417895526 0.03111722069482629 0.0001249687578105474 0.0001249687578105474 0.97488127968008 0.02486878280429893 0.0001249687578105474 0.0001249687578105474 0.973756560859785 0.02599350162459385 0.0001249687578105474 0.0001249687578105474 0.970757310672332 0.02899275181204699 0.0001249687578105474 0.0001249687578105474 0.9670082479380155 0.03274181454636341 0.0001249687578105474 0.0001249687578105474 0.9676330917270682 0.03211697075731067 0.0001249687578105474 0.0001249687578105474 0.9691327168207948 0.03061734566358411 0.0001249687578105474 0.0001249687578105474 0.9713821544613847 0.02836790802299425 0.0001249687578105474 0.0001249687578105474 0.9720069982504373 0.02774306423394151 0.0001249687578105474 0.0001249687578105474 0.9716320919770057 0.02811797050737316 0.0001249687578105474 0.0001249687578105474 0.9722569357660585 0.02749312671832042 0.0001249687578105474 0.0001249687578105474 0.9730067483129218 0.02674331417145714 0.0001249687578105474 0.0001249687578105474 0.9720069982504373 0.02774306423394151 0.0001249687578105474 0.0001249687578105474 0.9720069982504373 0.02774306423394151 0.0001249687578105474 0.0001249687578105474 0.9728817795551112 0.02686828292926768 0.0001249687578105474 0.0001249687578105474 0.9691327168207948 0.03061734566358411 0.0001249687578105474 0.0001249687578105474 0.9730067483129218 0.02674331417145714 0.0001249687578105474 0.0001249687578105474 0.9697575606098475 0.02999250187453137 0.0001249687578105474 0.0001249687578105474 0.9676330917270682 0.03211697075731067 0.0001249687578105474 0.0001249687578105474 0.9736315921019745 0.0261184703824044 0.0001249687578105474 0.0001249687578105474 0.9725068732816796 0.02724318920269932 0.0001249687578105474 0.0001249687578105474 0.9702574356410897 0.02949262684328918 0.0001249687578105474 0.0001249687578105474 0.9756310922269432 0.02411897025743564 0.0001249687578105474 0.0001249687578105474 0.9730067483129218 0.02674331417145714 0.0001249687578105474 0.0001249687578105474 0.9728817795551112 0.02686828292926768 0.0001249687578105474 0.0001249687578105474 0.9721319670082479 0.02761809547613097 0.0001249687578105474 0.0001249687578105474 0.9732566858285429 0.02649337665583604 0.0001249687578105474 0.0001249687578105474 0.9705073731567109 0.02924268932766808 0.0001249687578105474 0.0001249687578105474 0.9732566858285429 0.02649337665583604 0.0001249687578105474 0.0001249687578105474 0.9697575606098475 0.02999250187453137 0.0001249687578105474 0.0001249687578105474 0.9678830292426893 0.03186703324168958 0.0001249687578105474 0.0001249687578105474 0.9786303424143964 0.0211197200699825 0.0001249687578105474 0.0001249687578105474 0.9758810297425644 0.02386903274181455 0.0001249687578105474 0.0001249687578105474 0.9747563109222694 0.02499375156210947 0.0001249687578105474 0.0001249687578105474 0.9757560609847538 0.02399400149962509 0.0001249687578105474 0.0001249687578105474 0.9751312171957011 0.02461884528867783 0.0001249687578105474 0.0001249687578105474 0.9708822794301425 0.02886778305423644 0.0001249687578105474 0.0001249687578105474 0.9727568107973007 0.02699325168707823 0.0001249687578105474 0.0001249687578105474 0.9767558110472382 0.02299425143714072 0.0001249687578105474 0.0001249687578105474 0.9746313421644589 0.02511872031992002 0.0001249687578105474 0.0001249687578105474 0.9721319670082479 0.02761809547613097 0.0001249687578105474 0.0001249687578105474 0.9732566858285429 0.02649337665583604 0.0001249687578105474 0.0001249687578105474 0.9720069982504373 0.02774306423394151 0.0001249687578105474 0.0001249687578105474 0.9791302174456386 0.02061984503874031 0.0001249687578105474 0.0001249687578105474 0.9761309672581855 0.02361909522619345 0.0001249687578105474 0.0001249687578105474 0.9805048737815546 0.0192451887028243 0.0001249687578105474 0.0001249687578105474 0.9812546863284179 0.01849537615596101 0.0001249687578105474 0.0001249687578105474 0.9733816545863534 0.02636840789802549 0.0001249687578105474 0.0001249687578105474 0.9775056235941014 0.02224443889027743 0.0001249687578105474 0.0001249687578105474 0.9797550612346914 0.01999500124968758 0.0001249687578105474 0.0001249687578105474 0.9772556860784803 0.02249437640589853 0.0001249687578105474 0.0001249687578105474 0.9781304673831542 0.02161959510122469 0.0001249687578105474 0.0001249687578105474 0.9757560609847538 0.02399400149962509 0.0001249687578105474 0.0001249687578105474 0.9771307173206698 0.02261934516370907 0.0001249687578105474 0.0001249687578105474 0.9765058735316171 0.02324418895276181 0.0001249687578105474 0.0001249687578105474 0.9782554361409648 0.02149462634341415 0.0001249687578105474 0.0001249687578105474 0.9812546863284179 0.01849537615596101 0.0001249687578105474 0.0001249687578105474 0.9785053736565859 0.02124468882779305 0.0001249687578105474 0.0001249687578105474 0.9805048737815546 0.0192451887028243 0.0001249687578105474 0.0001249687578105474 0.9806298425393651 0.01912021994501375 0.0001249687578105474 0.0001249687578105474 0.9783804048987753 0.0213696575856036 0.0001249687578105474 0.0001249687578105474 0.9820044988752812 0.01774556360909773 0.0001249687578105474 0.0001249687578105474 0.9821294676330917 0.01762059485128718 0.0001249687578105474 0.0001249687578105474 0.9792551862034491 0.02049487628092977 0.0001249687578105474 0.0001249687578105474 0.9805048737815546 0.0192451887028243 0.0001249687578105474 0.0001249687578105474 0.9778805298675332 0.02186953261684579 0.0001249687578105474 0.0001249687578105474 0.9758810297425644 0.02386903274181455 0.0001249687578105474 0.0001249687578105474 0.9802549362659335 0.01949512621844539 0.0001249687578105474 0.0001249687578105474 0.9802549362659335 0.01949512621844539 0.0001249687578105474 0.0001249687578105474 0.9777555611097226 0.02199450137465634 0.0001249687578105474 0.0001249687578105474 0.9823794051487128 0.01737065733566608 0.0001249687578105474 0.0001249687578105474 0.9797550612346914 0.01999500124968758 0.0001249687578105474 0.0001249687578105474 0.9795051237190703 0.02024493876530867 0.0001249687578105474 0.0001249687578105474 0.9812546863284179 0.01849537615596101 0.0001249687578105474 0.0001249687578105474 0.9785053736565859 0.02124468882779305 0.0001249687578105474 0.0001249687578105474 0.9770057485628593 0.02274431392151962 0.0001249687578105474 0.0001249687578105474 0.9783804048987753 0.0213696575856036 0.0001249687578105474 0.0001249687578105474 0.9787553111722069 0.02099475131217196 0.0001249687578105474 0.0001249687578105474 0.9775056235941014 0.02224443889027743 0.0001249687578105474 0.0001249687578105474 0.9805048737815546 0.0192451887028243 0.0001249687578105474 0.0001249687578105474 0.9810047488127968 0.01874531367158211 0.0001249687578105474 0.0001249687578105474 0.9841289677580605 0.01562109472631842 0.0001249687578105474 0.0001249687578105474 0.9831292176955762 0.0166208447888028 0.0001249687578105474 0.0001249687578105474 0.9835041239690078 0.01624593851537116 0.0001249687578105474 0.0001249687578105474 0.9808797800549862 0.01887028242939265 0.0001249687578105474 0.0001249687578105474 0.9827543114221444 0.01699575106223444 0.0001249687578105474 0.0001249687578105474 0.9796300924768808 0.02011997000749812 0.0001249687578105474 0.0001249687578105474 0.9770057485628593 0.02274431392151962 0.0001249687578105474 0.0001249687578105474 0.9802549362659335 0.01949512621844539 0.0001249687578105474 0.0001249687578105474 0.9827543114221444 0.01699575106223444 0.0001249687578105474 0.0001249687578105474 0.9785053736565859 0.02124468882779305 0.0001249687578105474 0.0001249687578105474 0.9783804048987753 0.0213696575856036 0.0001249687578105474 0.0001249687578105474 0.9806298425393651 0.01912021994501375 0.0001249687578105474 0.0001249687578105474 0.9793801549612596 0.02036990752311922 0.0001249687578105474 0.0001249687578105474 0.9770057485628593 0.02274431392151962 0.0001249687578105474 0.0001249687578105474 0.9781304673831542 0.02161959510122469 0.0001249687578105474 0.0001249687578105474 0.9725068732816796 0.02724318920269932 0.0001249687578105474 0.0001249687578105474 0.9776305923519121 0.02211947013246688 0.0001249687578105474 0.0001249687578105474 0.9785053736565859 0.02124468882779305 0.0001249687578105474 0.0001249687578105474 0.9770057485628593 0.02274431392151962 0.0001249687578105474 0.0001249687578105474 0.9747563109222694 0.02499375156210947 0.0001249687578105474 0.0001249687578105474 0.9743814046488378 0.02536865783554111 0.0001249687578105474 0.0001249687578105474 0.9727568107973007 0.02699325168707823 0.0001249687578105474 0.0001249687578105474 0.9785053736565859 0.02124468882779305 0.0001249687578105474 0.0001249687578105474 0.9767558110472382 0.02299425143714072 0.0001249687578105474 0.0001249687578105474 0.9786303424143964 0.0211197200699825 0.0001249687578105474 0.0001249687578105474 0.9783804048987753 0.0213696575856036 0.0001249687578105474 0.0001249687578105474 0.9776305923519121 0.02211947013246688 0.0001249687578105474 0.0001249687578105474 0.9760059985003749 0.023744063984004 0.0001249687578105474 0.0001249687578105474 0.9777555611097226 0.02199450137465634 0.0001249687578105474 0.0001249687578105474 0.9806298425393651 0.01912021994501375 0.0001249687578105474 0.0001249687578105474 0.9773806548362909 0.02236940764808798 0.0001249687578105474 0.0001249687578105474 0.9785053736565859 0.02124468882779305 0.0001249687578105474 0.0001249687578105474 0.9758810297425644 0.02386903274181455 0.0001249687578105474 0.0001249687578105474 0.9730067483129218 0.02674331417145714 0.0001249687578105474 0.0001249687578105474 0.9816295926018496 0.01812046988252937 0.0001249687578105474 0.0001249687578105474 0.9793801549612596 0.02036990752311922 0.0001249687578105474 0.0001249687578105474 0.9796300924768808 0.02011997000749812 0.0001249687578105474 0.0001249687578105474 0.9827543114221444 0.01699575106223444 0.0001249687578105474 0.0001249687578105474 0.9777555611097226 0.02199450137465634 0.0001249687578105474 0.0001249687578105474 0.9797550612346914 0.01999500124968758 0.0001249687578105474 0.0001249687578105474 0.9803799050237441 0.01937015746063484 0.0001249687578105474 0.0001249687578105474 0.9781304673831542 0.02161959510122469 0.0001249687578105474 0.0001249687578105474 0.9778805298675332 0.02186953261684579 0.0001249687578105474 0.0001249687578105474 0.9793801549612596 0.02036990752311922 0.0001249687578105474 0.0001249687578105474 0.9730067483129218 0.02674331417145714 0.0001249687578105474 0.0001249687578105474 0.9772556860784803 0.02249437640589853 0.0001249687578105474 0.0001249687578105474 0.9807548112971757 0.0189952511872032 0.0001249687578105474 0.0001249687578105474 0.982879280179955 0.01687078230442389 0.0001249687578105474 0.0001249687578105474 0.979005248687828 0.02074481379655086 0.0001249687578105474 0.0001249687578105474 0.9791302174456386 0.02061984503874031 0.0001249687578105474 0.0001249687578105474 0.981504623844039 0.01824543864033992 0.0001249687578105474 0.0001249687578105474 0.9811297175706073 0.01862034491377156 0.0001249687578105474 0.0001249687578105474 0.9818795301174706 0.01787053236690827 0.0001249687578105474 0.0001249687578105474 0.9800049987503124 0.01974506373406648 0.0001249687578105474 0.0001249687578105474 0.9802549362659335 0.01949512621844539 0.0001249687578105474 0.0001249687578105474 0.9810047488127968 0.01874531367158211 0.0001249687578105474 0.0001249687578105474 0.9791302174456386 0.02061984503874031 0.0001249687578105474 0.0001249687578105474 0.9791302174456386 0.02061984503874031 0.0001249687578105474 0.0001249687578105474 0.9756310922269432 0.02411897025743564 0.0001249687578105474 0.0001249687578105474 0.9741314671332167 0.02561859535116221 0.0001249687578105474 0.0001249687578105474 0.9740064983754061 0.02574356410897276 0.0001249687578105474 0.0001249687578105474 0.9797550612346914 0.01999500124968758 0.0001249687578105474 0.0001249687578105474 0.9775056235941014 0.02224443889027743 0.0001249687578105474 0.0001249687578105474 0.9746313421644589 0.02511872031992002 0.0001249687578105474 0.0001249687578105474 0.9767558110472382 0.02299425143714072 0.0001249687578105474 0.0001249687578105474 0.9760059985003749 0.023744063984004 0.0001249687578105474 0.0001249687578105474 0.9776305923519121 0.02211947013246688 0.0001249687578105474 0.0001249687578105474 0.9718820294926268 0.02786803299175206 0.0001249687578105474 0.0001249687578105474 0.9722569357660585 0.02749312671832042 0.0001249687578105474 0.0001249687578105474 0.9722569357660585 0.02749312671832042 0.0001249687578105474 0.0001249687578105474 0.9788802799300175 0.02086978255436141 0.0001249687578105474 0.0001249687578105474 0.9751312171957011 0.02461884528867783 0.0001249687578105474 0.0001249687578105474 0.9783804048987753 0.0213696575856036 0.0001249687578105474 0.0001249687578105474 0.9768807798050487 0.02286928267933017 0.0001249687578105474 0.0001249687578105474 0.9795051237190703 0.02024493876530867 0.0001249687578105474 0.0001249687578105474 0.9750062484378905 0.02474381404648838 0.0001249687578105474 0.0001249687578105474 0.9775056235941014 0.02224443889027743 0.0001249687578105474 0.0001249687578105474 0.9745063734066484 0.02524368907773057 0.0001249687578105474 0.0001249687578105474 0.9775056235941014 0.02224443889027743 0.0001249687578105474 0.0001249687578105474 0.9740064983754061 0.02574356410897276 0.0001249687578105474 0.0001249687578105474 0.976255936015996 0.02349412646838291 0.0001249687578105474 0.0001249687578105474 0.9711322169457636 0.02861784553861535 0.0001249687578105474 0.0001249687578105474 0.9781304673831542 0.02161959510122469 0.0001249687578105474 0.0001249687578105474 0.9766308422894276 0.02311922019495126 0.0001249687578105474 0.0001249687578105474 0.9787553111722069 0.02099475131217196 0.0001249687578105474 0.0001249687578105474 0.9803799050237441 0.01937015746063484 0.0001249687578105474 0.0001249687578105474 0.9758810297425644 0.02386903274181455 0.0001249687578105474 0.0001249687578105474 0.9767558110472382 0.02299425143714072 0.0001249687578105474 0.0001249687578105474 0.9775056235941014 0.02224443889027743 0.0001249687578105474 0.0001249687578105474 0.9772556860784803 0.02249437640589853 0.0001249687578105474 0.0001249687578105474 0.9803799050237441 0.01937015746063484 0.0001249687578105474 0.0001249687578105474 0.9776305923519121 0.02211947013246688 0.0001249687578105474 0.0001249687578105474 0.9772556860784803 0.02249437640589853 0.0001249687578105474 0.0001249687578105474 0.9747563109222694 0.02499375156210947 0.0001249687578105474 0.0001249687578105474 0.9807548112971757 0.0189952511872032 0.0001249687578105474 0.0001249687578105474 0.9826293426643339 0.01712071982004499 0.0001249687578105474 0.0001249687578105474 0.9796300924768808 0.02011997000749812 0.0001249687578105474 0.0001249687578105474 0.9781304673831542 0.02161959510122469 0.0001249687578105474 0.0001249687578105474 0.9803799050237441 0.01937015746063484 0.0001249687578105474 0.0001249687578105474 0.9783804048987753 0.0213696575856036 0.0001249687578105474 0.0001249687578105474 0.9797550612346914 0.01999500124968758 0.0001249687578105474 0.0001249687578105474 0.9787553111722069 0.02099475131217196 0.0001249687578105474 0.0001249687578105474 0.9775056235941014 0.02224443889027743 0.0001249687578105474 0.0001249687578105474 0.9776305923519121 0.02211947013246688 0.0001249687578105474 0.0001249687578105474 0.9797550612346914 0.01999500124968758 0.0001249687578105474 0.0001249687578105474 0.9776305923519121 0.02211947013246688 0.0001249687578105474 0.0001249687578105474 0.9776305923519121 0.02211947013246688 0.0001249687578105474 0.0001249687578105474 0.9751312171957011 0.02461884528867783 0.0001249687578105474 0.0001249687578105474 0.976255936015996 0.02349412646838291 0.0001249687578105474 0.0001249687578105474 0.979005248687828 0.02074481379655086 0.0001249687578105474 0.0001249687578105474 0.9773806548362909 0.02236940764808798 0.0001249687578105474 0.0001249687578105474 0.9760059985003749 0.023744063984004 0.0001249687578105474 0.0001249687578105474 0.9792551862034491 0.02049487628092977 0.0001249687578105474 0.0001249687578105474 0.9750062484378905 0.02474381404648838 0.0001249687578105474 0.0001249687578105474 0.9787553111722069 0.02099475131217196 0.0001249687578105474 0.0001249687578105474 0.9732566858285429 0.02649337665583604 0.0001249687578105474 0.0001249687578105474 0.976255936015996 0.02349412646838291 0.0001249687578105474 0.0001249687578105474 0.9735066233441639 0.02624343914021495 0.0001249687578105474 0.0001249687578105474 0.9763809047738066 0.02336915771057236 0.0001249687578105474 0.0001249687578105474 0.976255936015996 0.02349412646838291 0.0001249687578105474 0.0001249687578105474 0.9756310922269432 0.02411897025743564 0.0001249687578105474 0.0001249687578105474 0.9771307173206698 0.02261934516370907 0.0001249687578105474 0.0001249687578105474 0.9745063734066484 0.02524368907773057 0.0001249687578105474 0.0001249687578105474 0.9763809047738066 0.02336915771057236 0.0001249687578105474 0.0001249687578105474 0.9760059985003749 0.023744063984004 0.0001249687578105474 0.0001249687578105474 0.9796300924768808 0.02011997000749812 0.0001249687578105474 0.0001249687578105474 0.9735066233441639 0.02624343914021495 0.0001249687578105474 0.0001249687578105474 0.9750062484378905 0.02474381404648838 0.0001249687578105474 0.0001249687578105474 0.9772556860784803 0.02249437640589853 0.0001249687578105474 0.0001249687578105474 0.9743814046488378 0.02536865783554111 0.0001249687578105474 0.0001249687578105474 0.9760059985003749 0.023744063984004 0.0001249687578105474 0.0001249687578105474 0.9803799050237441 0.01937015746063484 0.0001249687578105474 0.0001249687578105474 0.9791302174456386 0.02061984503874031 0.0001249687578105474 0.0001249687578105474 0.9800049987503124 0.01974506373406648 0.0001249687578105474 0.0001249687578105474 0.9758810297425644 0.02386903274181455 0.0001249687578105474 0.0001249687578105474 0.9777555611097226 0.02199450137465634 0.0001249687578105474 0.0001249687578105474 0.9777555611097226 0.02199450137465634 0.0001249687578105474 0.0001249687578105474 0.9785053736565859 0.02124468882779305 0.0001249687578105474 0.0001249687578105474 0.97488127968008 0.02486878280429893 0.0001249687578105474 0.0001249687578105474 0.9740064983754061 0.02574356410897276 0.0001249687578105474 0.0001249687578105474 0.9757560609847538 0.02399400149962509 0.0001249687578105474 0.0001249687578105474 0.9747563109222694 0.02499375156210947 0.0001249687578105474 0.0001249687578105474 0.9816295926018496 0.01812046988252937 0.0001249687578105474 0.0001249687578105474 0.9821294676330917 0.01762059485128718 0.0001249687578105474 0.0001249687578105474 0.9835041239690078 0.01624593851537116 0.0001249687578105474 0.0001249687578105474 0.979005248687828 0.02074481379655086 0.0001249687578105474 0.0001249687578105474 0.980129967508123 0.01962009497625593 0.0001249687578105474 0.0001249687578105474 0.976255936015996 0.02349412646838291 0.0001249687578105474 0.0001249687578105474 0.9798800299925019 0.01987003249187703 0.0001249687578105474 0.0001249687578105474 0.9778805298675332 0.02186953261684579 0.0001249687578105474 0.0001249687578105474 0.9755061234691327 0.02424393901524619 0.0001249687578105474 0.0001249687578105474 0.9785053736565859 0.02124468882779305 0.0001249687578105474 0.0001249687578105474 0.9771307173206698 0.02261934516370907 0.0001249687578105474 0.0001249687578105474 0.9751312171957011 0.02461884528867783 0.0001249687578105474 0.0001249687578105474 0.9715071232191952 0.0282429392651837 0.0001249687578105474 0.0001249687578105474 0.9690077480629843 0.03074231442139465 0.0001249687578105474 0.0001249687578105474 0.9700074981254686 0.02974256435891027 0.0001249687578105474 0.0001249687578105474 0.9693826543364159 0.03036740814796301 0.0001249687578105474 0.0001249687578105474 0.971007248187953 0.02874281429642589 0.0001249687578105474 0.0001249687578105474 0.9740064983754061 0.02574356410897276 0.0001249687578105474 0.0001249687578105474 0.9705073731567109 0.02924268932766808 0.0001249687578105474 0.0001249687578105474 0.968507873031742 0.03124218945263684 0.0001249687578105474 0.0001249687578105474 0.9680079980004999 0.03174206448387903 0.0001249687578105474 0.0001249687578105474 0.9720069982504373 0.02774306423394151 0.0001249687578105474 0.0001249687578105474 0.9675081229692577 0.03224193951512122 0.0001249687578105474 0.0001249687578105474 0.9683829042739315 0.03136715821044739 0.0001249687578105474 0.0001249687578105474 0.9747563109222694 0.02499375156210947 0.0001249687578105474 0.0001249687578105474 0.9768807798050487 0.02286928267933017 0.0001249687578105474 0.0001249687578105474 0.9731317170707323 0.02661834541364659 0.0001249687578105474 0.0001249687578105474 0.9728817795551112 0.02686828292926768 0.0001249687578105474 0.0001249687578105474 0.9751312171957011 0.02461884528867783 0.0001249687578105474 0.0001249687578105474 0.9722569357660585 0.02749312671832042 0.0001249687578105474 0.0001249687578105474 0.9706323419145214 0.02911772056985754 0.0001249687578105474 0.0001249687578105474 0.9692576855786054 0.03049237690577355 0.0001249687578105474 0.0001249687578105474 0.9716320919770057 0.02811797050737316 0.0001249687578105474 0.0001249687578105474 0.9705073731567109 0.02924268932766808 0.0001249687578105474 0.0001249687578105474 0.971007248187953 0.02874281429642589 0.0001249687578105474 0.0001249687578105474 0.9681329667583104 0.03161709572606848 0.0001249687578105474 0.0001249687578105474 0.973756560859785 0.02599350162459385 0.0001249687578105474 0.0001249687578105474 0.9736315921019745 0.0261184703824044 0.0001249687578105474 0.0001249687578105474 0.9741314671332167 0.02561859535116221 0.0001249687578105474 0.0001249687578105474 0.976255936015996 0.02349412646838291 0.0001249687578105474 0.0001249687578105474 0.9715071232191952 0.0282429392651837 0.0001249687578105474 0.0001249687578105474 0.9765058735316171 0.02324418895276181 0.0001249687578105474 0.0001249687578105474 0.9751312171957011 0.02461884528867783 0.0001249687578105474 0.0001249687578105474 0.9692576855786054 0.03049237690577355 0.0001249687578105474 0.0001249687578105474 0.9722569357660585 0.02749312671832042 0.0001249687578105474 0.0001249687578105474 0.9700074981254686 0.02974256435891027 0.0001249687578105474 0.0001249687578105474 0.9741314671332167 0.02561859535116221 0.0001249687578105474 0.0001249687578105474 0.9741314671332167 0.02561859535116221 0.0001249687578105474 0.0001249687578105474 0.9758810297425644 0.02386903274181455 0.0001249687578105474 0.0001249687578105474 0.9782554361409648 0.02149462634341415 0.0001249687578105474 0.0001249687578105474 0.9771307173206698 0.02261934516370907 0.0001249687578105474 0.0001249687578105474 0.9753811547113221 0.02436890777305674 0.0001249687578105474 0.0001249687578105474 0.9758810297425644 0.02386903274181455 0.0001249687578105474 0.0001249687578105474 0.9738815296175956 0.0258685328667833 0.0001249687578105474 0.0001249687578105474 0.9755061234691327 0.02424393901524619 0.0001249687578105474 0.0001249687578105474 0.9768807798050487 0.02286928267933017 0.0001249687578105474 0.0001249687578105474 0.9763809047738066 0.02336915771057236 0.0001249687578105474 0.0001249687578105474 0.9741314671332167 0.02561859535116221 0.0001249687578105474 0.0001249687578105474 0.9751312171957011 0.02461884528867783 0.0001249687578105474 0.0001249687578105474 0.9740064983754061 0.02574356410897276 0.0001249687578105474 0.0001249687578105474 0.9810047488127968 0.01874531367158211 0.0001249687578105474 0.0001249687578105474 0.9810047488127968 0.01874531367158211 0.0001249687578105474 0.0001249687578105474 0.9795051237190703 0.02024493876530867 0.0001249687578105474 0.0001249687578105474 0.9770057485628593 0.02274431392151962 0.0001249687578105474 0.0001249687578105474 0.9783804048987753 0.0213696575856036 0.0001249687578105474 0.0001249687578105474 0.976255936015996 0.02349412646838291 0.0001249687578105474 0.0001249687578105474 0.9786303424143964 0.0211197200699825 0.0001249687578105474 0.0001249687578105474 0.9811297175706073 0.01862034491377156 0.0001249687578105474 0.0001249687578105474 0.9757560609847538 0.02399400149962509 0.0001249687578105474 0.0001249687578105474 0.9781304673831542 0.02161959510122469 0.0001249687578105474 0.0001249687578105474 0.9778805298675332 0.02186953261684579 0.0001249687578105474 0.0001249687578105474 0.9733816545863534 0.02636840789802549 0.0001249687578105474 0.0001249687578105474 0.9783804048987753 0.0213696575856036 0.0001249687578105474 0.0001249687578105474 0.9856285928517871 0.01412146963259185 0.0001249687578105474 0.0001249687578105474 0.9793801549612596 0.02036990752311922 0.0001249687578105474 0.0001249687578105474 0.9797550612346914 0.01999500124968758 0.0001249687578105474 0.0001249687578105474 0.9786303424143964 0.0211197200699825 0.0001249687578105474 0.0001249687578105474 0.9768807798050487 0.02286928267933017 0.0001249687578105474 0.0001249687578105474 0.9810047488127968 0.01874531367158211 0.0001249687578105474 0.0001249687578105474 0.9798800299925019 0.01987003249187703 0.0001249687578105474 0.0001249687578105474 0.9796300924768808 0.02011997000749812 0.0001249687578105474 0.0001249687578105474 0.9775056235941014 0.02224443889027743 0.0001249687578105474 0.0001249687578105474 0.9795051237190703 0.02024493876530867 0.0001249687578105474 0.0001249687578105474 0.980129967508123 0.01962009497625593 0.0001249687578105474 0.0001249687578105474 0.9845038740314921 0.01524618845288678 0.0001249687578105474 0.0001249687578105474 0.9816295926018496 0.01812046988252937 0.0001249687578105474 0.0001249687578105474 0.9791302174456386 0.02061984503874031 0.0001249687578105474 0.0001249687578105474 0.9833791552111972 0.0163709072731817 0.0001249687578105474 0.0001249687578105474 0.9830042489377656 0.01674581354661335 0.0001249687578105474 0.0001249687578105474 0.9763809047738066 0.02336915771057236 0.0001249687578105474 0.0001249687578105474 0.9777555611097226 0.02199450137465634 0.0001249687578105474 0.0001249687578105474 0.9822544363909023 0.01749562609347663 0.0001249687578105474 0.0001249687578105474 0.9773806548362909 0.02236940764808798 0.0001249687578105474 0.0001249687578105474 0.979005248687828 0.02074481379655086 0.0001249687578105474 0.0001249687578105474 0.9781304673831542 0.02161959510122469 0.0001249687578105474 0.0001249687578105474 0.9783804048987753 0.0213696575856036 0.0001249687578105474 0.0001249687578105474 0.9830042489377656 0.01674581354661335 0.0001249687578105474 0.0001249687578105474 0.9831292176955762 0.0166208447888028 0.0001249687578105474 0.0001249687578105474 0.9817545613596601 0.01799550112471882 0.0001249687578105474 0.0001249687578105474 0.985378655336166 0.01437140714821295 0.0001249687578105474 0.0001249687578105474 0.9841289677580605 0.01562109472631842 0.0001249687578105474 0.0001249687578105474 0.9831292176955762 0.0166208447888028 0.0001249687578105474 0.0001249687578105474 0.982879280179955 0.01687078230442389 0.0001249687578105474 0.0001249687578105474 0.9800049987503124 0.01974506373406648 0.0001249687578105474 0.0001249687578105474 0.9807548112971757 0.0189952511872032 0.0001249687578105474 0.0001249687578105474 0.9811297175706073 0.01862034491377156 0.0001249687578105474 0.0001249687578105474 0.9798800299925019 0.01987003249187703 0.0001249687578105474 0.0001249687578105474 0.9820044988752812 0.01774556360909773 0.0001249687578105474 0.0001249687578105474 0.9782554361409648 0.02149462634341415 0.0001249687578105474 0.0001249687578105474 0.9781304673831542 0.02161959510122469 0.0001249687578105474 0.0001249687578105474 0.9753811547113221 0.02436890777305674 0.0001249687578105474 0.0001249687578105474 0.9802549362659335 0.01949512621844539 0.0001249687578105474 0.0001249687578105474 0.9765058735316171 0.02324418895276181 0.0001249687578105474 0.0001249687578105474 0.9753811547113221 0.02436890777305674 0.0001249687578105474 0.0001249687578105474 0.9767558110472382 0.02299425143714072 0.0001249687578105474 0.0001249687578105474 0.9767558110472382 0.02299425143714072 0.0001249687578105474 0.0001249687578105474 0.9791302174456386 0.02061984503874031 0.0001249687578105474 0.0001249687578105474 0.9742564358910273 0.02549362659335166 0.0001249687578105474 0.0001249687578105474 0.9771307173206698 0.02261934516370907 0.0001249687578105474 0.0001249687578105474 0.9745063734066484 0.02524368907773057 0.0001249687578105474 0.0001249687578105474 0.9792551862034491 0.02049487628092977 0.0001249687578105474 0.0001249687578105474 0.9800049987503124 0.01974506373406648 0.0001249687578105474 0.0001249687578105474 0.9791302174456386 0.02061984503874031 0.0001249687578105474 0.0001249687578105474 0.9806298425393651 0.01912021994501375 0.0001249687578105474 0.0001249687578105474 0.9775056235941014 0.02224443889027743 0.0001249687578105474 0.0001249687578105474 0.9783804048987753 0.0213696575856036 0.0001249687578105474 0.0001249687578105474 0.9745063734066484 0.02524368907773057 0.0001249687578105474 0.0001249687578105474 0.9792551862034491 0.02049487628092977 0.0001249687578105474 0.0001249687578105474 0.9763809047738066 0.02336915771057236 0.0001249687578105474 0.0001249687578105474 0.9787553111722069 0.02099475131217196 0.0001249687578105474 0.0001249687578105474 0.9782554361409648 0.02149462634341415 0.0001249687578105474 0.0001249687578105474 0.9742564358910273 0.02549362659335166 0.0001249687578105474 0.0001249687578105474 0.9786303424143964 0.0211197200699825 0.0001249687578105474 0.0001249687578105474 0.9810047488127968 0.01874531367158211 0.0001249687578105474 0.0001249687578105474 0.980129967508123 0.01962009497625593 0.0001249687578105474 0.0001249687578105474 0.9776305923519121 0.02211947013246688 0.0001249687578105474 0.0001249687578105474 0.9773806548362909 0.02236940764808798 0.0001249687578105474 0.0001249687578105474 0.9778805298675332 0.02186953261684579 0.0001249687578105474 0.0001249687578105474 0.9822544363909023 0.01749562609347663 0.0001249687578105474 0.0001249687578105474 0.976255936015996 0.02349412646838291 0.0001249687578105474 0.0001249687578105474 0.9776305923519121 0.02211947013246688 0.0001249687578105474 0.0001249687578105474 0.9787553111722069 0.02099475131217196 0.0001249687578105474 0.0001249687578105474 0.9743814046488378 0.02536865783554111 0.0001249687578105474 0.0001249687578105474 0.9777555611097226 0.02199450137465634 0.0001249687578105474 0.0001249687578105474 0.9832541864533867 0.01649587603099225 0.0001249687578105474 0.0001249687578105474 0.9805048737815546 0.0192451887028243 0.0001249687578105474 0.0001249687578105474 0.9805048737815546 0.0192451887028243 0.0001249687578105474 0.0001249687578105474 0.9816295926018496 0.01812046988252937 0.0001249687578105474 0.0001249687578105474 0.9800049987503124 0.01974506373406648 0.0001249687578105474 0.0001249687578105474 0.9788802799300175 0.02086978255436141 0.0001249687578105474 0.0001249687578105474 0.9796300924768808 0.02011997000749812 0.0001249687578105474 0.0001249687578105474 0.9807548112971757 0.0189952511872032 0.0001249687578105474 0.0001249687578105474 0.9796300924768808 0.02011997000749812 0.0001249687578105474 0.0001249687578105474 0.9792551862034491 0.02049487628092977 0.0001249687578105474 0.0001249687578105474 0.9808797800549862 0.01887028242939265 0.0001249687578105474 0.0001249687578105474 0.980129967508123 0.01962009497625593 0.0001249687578105474 0.0001249687578105474 0.9755061234691327 0.02424393901524619 0.0001249687578105474 0.0001249687578105474 0.9803799050237441 0.01937015746063484 0.0001249687578105474 0.0001249687578105474 0.9771307173206698 0.02261934516370907 0.0001249687578105474 0.0001249687578105474 0.9785053736565859 0.02124468882779305 0.0001249687578105474 0.0001249687578105474 0.9770057485628593 0.02274431392151962 0.0001249687578105474 0.0001249687578105474 0.9726318420394902 0.02711822044488878 0.0001249687578105474 0.0001249687578105474 0.9765058735316171 0.02324418895276181 0.0001249687578105474 0.0001249687578105474 0.9751312171957011 0.02461884528867783 0.0001249687578105474 0.0001249687578105474 0.9736315921019745 0.0261184703824044 0.0001249687578105474 0.0001249687578105474 0.9747563109222694 0.02499375156210947 0.0001249687578105474 0.0001249687578105474 0.9756310922269432 0.02411897025743564 0.0001249687578105474 0.0001249687578105474 0.9720069982504373 0.02774306423394151 0.0001249687578105474 0.0001249687578105474 0.979005248687828 0.02074481379655086 0.0001249687578105474 0.0001249687578105474 0.9786303424143964 0.0211197200699825 0.0001249687578105474 0.0001249687578105474 0.9808797800549862 0.01887028242939265 0.0001249687578105474 0.0001249687578105474 0.979005248687828 0.02074481379655086 0.0001249687578105474 0.0001249687578105474 0.9776305923519121 0.02211947013246688 0.0001249687578105474 0.0001249687578105474 0.9777555611097226 0.02199450137465634 0.0001249687578105474 0.0001249687578105474 0.9783804048987753 0.0213696575856036 0.0001249687578105474 0.0001249687578105474 0.9755061234691327 0.02424393901524619 0.0001249687578105474 0.0001249687578105474 0.9787553111722069 0.02099475131217196 0.0001249687578105474 0.0001249687578105474 0.9787553111722069 0.02099475131217196 0.0001249687578105474 0.0001249687578105474 0.9766308422894276 0.02311922019495126 0.0001249687578105474 0.0001249687578105474 0.9761309672581855 0.02361909522619345 0.0001249687578105474 0.0001249687578105474 0.9795051237190703 0.02024493876530867 0.0001249687578105474 0.0001249687578105474 0.9767558110472382 0.02299425143714072 0.0001249687578105474 0.0001249687578105474 0.9785053736565859 0.02124468882779305 0.0001249687578105474 0.0001249687578105474 0.9805048737815546 0.0192451887028243 0.0001249687578105474 0.0001249687578105474 0.9793801549612596 0.02036990752311922 0.0001249687578105474 0.0001249687578105474 0.9778805298675332 0.02186953261684579 0.0001249687578105474 0.0001249687578105474 0.9796300924768808 0.02011997000749812 0.0001249687578105474 0.0001249687578105474 0.9787553111722069 0.02099475131217196 0.0001249687578105474 0.0001249687578105474 0.9766308422894276 0.02311922019495126 0.0001249687578105474 0.0001249687578105474 0.9745063734066484 0.02524368907773057 0.0001249687578105474 0.0001249687578105474 0.97488127968008 0.02486878280429893 0.0001249687578105474 0.0001249687578105474 0.9800049987503124 0.01974506373406648 0.0001249687578105474 0.0001249687578105474 0.9806298425393651 0.01912021994501375 0.0001249687578105474 0.0001249687578105474 0.980129967508123 0.01962009497625593 0.0001249687578105474 0.0001249687578105474 0.9798800299925019 0.01987003249187703 0.0001249687578105474 0.0001249687578105474 0.9806298425393651 0.01912021994501375 0.0001249687578105474 0.0001249687578105474 0.9820044988752812 0.01774556360909773 0.0001249687578105474 0.0001249687578105474 0.9782554361409648 0.02149462634341415 0.0001249687578105474 0.0001249687578105474 0.9793801549612596 0.02036990752311922 0.0001249687578105474 0.0001249687578105474 0.9803799050237441 0.01937015746063484 0.0001249687578105474 0.0001249687578105474 0.9802549362659335 0.01949512621844539 0.0001249687578105474 0.0001249687578105474 0.9771307173206698 0.02261934516370907 0.0001249687578105474 0.0001249687578105474 0.9761309672581855 0.02361909522619345 0.0001249687578105474 0.0001249687578105474 0.9791302174456386 0.02061984503874031 0.0001249687578105474 0.0001249687578105474 0.9757560609847538 0.02399400149962509 0.0001249687578105474 0.0001249687578105474 0.9745063734066484 0.02524368907773057 0.0001249687578105474 0.0001249687578105474 0.9778805298675332 0.02186953261684579 0.0001249687578105474 0.0001249687578105474 0.9758810297425644 0.02386903274181455 0.0001249687578105474 0.0001249687578105474 0.9741314671332167 0.02561859535116221 0.0001249687578105474 0.0001249687578105474 0.9743814046488378 0.02536865783554111 0.0001249687578105474 0.0001249687578105474 0.9773806548362909 0.02236940764808798 0.0001249687578105474 0.0001249687578105474 0.9757560609847538 0.02399400149962509 0.0001249687578105474 0.0001249687578105474 0.9743814046488378 0.02536865783554111 0.0001249687578105474 0.0001249687578105474 0.9758810297425644 0.02386903274181455 0.0001249687578105474 0.0001249687578105474 0.9728817795551112 0.02686828292926768 0.0001249687578105474 0.0001249687578105474 0.9743814046488378 0.02536865783554111 0.0001249687578105474 0.0001249687578105474 0.9798800299925019 0.01987003249187703 0.0001249687578105474 0.0001249687578105474 0.9771307173206698 0.02261934516370907 0.0001249687578105474 0.0001249687578105474 0.9783804048987753 0.0213696575856036 0.0001249687578105474 0.0001249687578105474 0.9786303424143964 0.0211197200699825 0.0001249687578105474 0.0001249687578105474 0.9787553111722069 0.02099475131217196 0.0001249687578105474 0.0001249687578105474 0.9775056235941014 0.02224443889027743 0.0001249687578105474 0.0001249687578105474 0.9766308422894276 0.02311922019495126 0.0001249687578105474 0.0001249687578105474 0.9761309672581855 0.02361909522619345 0.0001249687578105474 0.0001249687578105474 0.9750062484378905 0.02474381404648838 0.0001249687578105474 0.0001249687578105474 0.97488127968008 0.02486878280429893 0.0001249687578105474 0.0001249687578105474 0.9736315921019745 0.0261184703824044 0.0001249687578105474 0.0001249687578105474 0.9736315921019745 0.0261184703824044 0.0001249687578105474 0.0001249687578105474 0.9785053736565859 0.02124468882779305 0.0001249687578105474 0.0001249687578105474 0.9772556860784803 0.02249437640589853 0.0001249687578105474 0.0001249687578105474 0.9796300924768808 0.02011997000749812 0.0001249687578105474 0.0001249687578105474 0.9775056235941014 0.02224443889027743 0.0001249687578105474 0.0001249687578105474 0.9792551862034491 0.02049487628092977 0.0001249687578105474 0.0001249687578105474 0.976255936015996 0.02349412646838291 0.0001249687578105474 0.0001249687578105474 0.9808797800549862 0.01887028242939265 0.0001249687578105474 0.0001249687578105474 0.9771307173206698 0.02261934516370907 0.0001249687578105474 0.0001249687578105474 0.9763809047738066 0.02336915771057236 0.0001249687578105474 0.0001249687578105474 0.9743814046488378 0.02536865783554111 0.0001249687578105474 0.0001249687578105474 0.9757560609847538 0.02399400149962509 0.0001249687578105474 0.0001249687578105474 0.9777555611097226 0.02199450137465634 0.0001249687578105474 0.0001249687578105474 0.9812546863284179 0.01849537615596101 0.0001249687578105474 0.0001249687578105474 0.9788802799300175 0.02086978255436141 0.0001249687578105474 0.0001249687578105474 0.9786303424143964 0.0211197200699825 0.0001249687578105474 0.0001249687578105474 0.9798800299925019 0.01987003249187703 0.0001249687578105474 0.0001249687578105474 0.9767558110472382 0.02299425143714072 0.0001249687578105474 0.0001249687578105474 0.9777555611097226 0.02199450137465634 0.0001249687578105474 0.0001249687578105474 0.9806298425393651 0.01912021994501375 0.0001249687578105474 0.0001249687578105474 0.979005248687828 0.02074481379655086 0.0001249687578105474 0.0001249687578105474 0.9777555611097226 0.02199450137465634 0.0001249687578105474 0.0001249687578105474 0.9771307173206698 0.02261934516370907 0.0001249687578105474 0.0001249687578105474 0.9788802799300175 0.02086978255436141 0.0001249687578105474 0.0001249687578105474 0.973756560859785 0.02599350162459385 0.0001249687578105474 0.0001249687578105474 0.9715071232191952 0.0282429392651837 0.0001249687578105474 0.0001249687578105474 0.9711322169457636 0.02861784553861535 0.0001249687578105474 0.0001249687578105474 0.9706323419145214 0.02911772056985754 0.0001249687578105474 0.0001249687578105474 0.9728817795551112 0.02686828292926768 0.0001249687578105474 0.0001249687578105474 0.9695076230942264 0.03024243939015246 0.0001249687578105474 0.0001249687578105474 0.9701324668832791 0.02961759560109973 0.0001249687578105474 0.0001249687578105474 0.9718820294926268 0.02786803299175206 0.0001249687578105474 0.0001249687578105474 0.9703824043989002 0.02936765808547863 0.0001249687578105474 0.0001249687578105474 0.970757310672332 0.02899275181204699 0.0001249687578105474 0.0001249687578105474 0.9703824043989002 0.02936765808547863 0.0001249687578105474 0.0001249687578105474 0.9720069982504373 0.02774306423394151 0.0001249687578105474 0.0001249687578105474 0.9690077480629843 0.03074231442139465 0.0001249687578105474 0.0001249687578105474 0.9763809047738066 0.02336915771057236 0.0001249687578105474 0.0001249687578105474 0.9702574356410897 0.02949262684328918 0.0001249687578105474 0.0001249687578105474 0.9722569357660585 0.02749312671832042 0.0001249687578105474 0.0001249687578105474 0.9733816545863534 0.02636840789802549 0.0001249687578105474 0.0001249687578105474 0.9753811547113221 0.02436890777305674 0.0001249687578105474 0.0001249687578105474 0.9715071232191952 0.0282429392651837 0.0001249687578105474 0.0001249687578105474 0.9723819045238691 0.02736815796050987 0.0001249687578105474 0.0001249687578105474 0.9730067483129218 0.02674331417145714 0.0001249687578105474 0.0001249687578105474 0.9692576855786054 0.03049237690577355 0.0001249687578105474 0.0001249687578105474 0.9711322169457636 0.02861784553861535 0.0001249687578105474 0.0001249687578105474 0.9701324668832791 0.02961759560109973 0.0001249687578105474 0.0001249687578105474 0.9658835291177206 0.03386653336665833 0.0001249687578105474 0.0001249687578105474 0.9760059985003749 0.023744063984004 0.0001249687578105474 0.0001249687578105474 0.9712571857035741 0.0284928767808048 0.0001249687578105474 0.0001249687578105474 0.9717570607348163 0.02799300174956261 0.0001249687578105474 0.0001249687578105474 0.9781304673831542 0.02161959510122469 0.0001249687578105474 0.0001249687578105474 0.9720069982504373 0.02774306423394151 0.0001249687578105474 0.0001249687578105474 0.9753811547113221 0.02436890777305674 0.0001249687578105474 0.0001249687578105474 0.9715071232191952 0.0282429392651837 0.0001249687578105474 0.0001249687578105474 0.9746313421644589 0.02511872031992002 0.0001249687578105474 0.0001249687578105474 0.9745063734066484 0.02524368907773057 0.0001249687578105474 0.0001249687578105474 0.9725068732816796 0.02724318920269932 0.0001249687578105474 0.0001249687578105474 0.9746313421644589 0.02511872031992002 0.0001249687578105474 0.0001249687578105474 0.9711322169457636 0.02861784553861535 0.0001249687578105474 0.0001249687578105474 0.9767558110472382 0.02299425143714072 0.0001249687578105474 0.0001249687578105474 0.9793801549612596 0.02036990752311922 0.0001249687578105474 0.0001249687578105474 0.9766308422894276 0.02311922019495126 0.0001249687578105474 0.0001249687578105474 0.9746313421644589 0.02511872031992002 0.0001249687578105474 0.0001249687578105474 0.9698825293676581 0.02986753311672082 0.0001249687578105474 0.0001249687578105474 0.9756310922269432 0.02411897025743564 0.0001249687578105474 0.0001249687578105474 0.9700074981254686 0.02974256435891027 0.0001249687578105474 0.0001249687578105474 0.97488127968008 0.02486878280429893 0.0001249687578105474 0.0001249687578105474 0.9711322169457636 0.02861784553861535 0.0001249687578105474 0.0001249687578105474 0.9756310922269432 0.02411897025743564 0.0001249687578105474 0.0001249687578105474 0.9755061234691327 0.02424393901524619 0.0001249687578105474 0.0001249687578105474 0.9675081229692577 0.03224193951512122 0.0001249687578105474 0.0001249687578105474 0.9822544363909023 0.01749562609347663 0.0001249687578105474 0.0001249687578105474 0.9820044988752812 0.01774556360909773 0.0001249687578105474 0.0001249687578105474 0.9821294676330917 0.01762059485128718 0.0001249687578105474 0.0001249687578105474 0.980129967508123 0.01962009497625593 0.0001249687578105474 0.0001249687578105474 0.9807548112971757 0.0189952511872032 0.0001249687578105474 0.0001249687578105474 0.9788802799300175 0.02086978255436141 0.0001249687578105474 0.0001249687578105474 0.9816295926018496 0.01812046988252937 0.0001249687578105474 0.0001249687578105474 0.9788802799300175 0.02086978255436141 0.0001249687578105474 0.0001249687578105474 0.9805048737815546 0.0192451887028243 0.0001249687578105474 0.0001249687578105474 0.9766308422894276 0.02311922019495126 0.0001249687578105474 0.0001249687578105474 0.9788802799300175 0.02086978255436141 0.0001249687578105474 0.0001249687578105474 0.9760059985003749 0.023744063984004 0.0001249687578105474 0.0001249687578105474 0.9822544363909023 0.01749562609347663 0.0001249687578105474 0.0001249687578105474 0.9803799050237441 0.01937015746063484 0.0001249687578105474 0.0001249687578105474 0.9802549362659335 0.01949512621844539 0.0001249687578105474 0.0001249687578105474 0.9805048737815546 0.0192451887028243 0.0001249687578105474 0.0001249687578105474 0.9800049987503124 0.01974506373406648 0.0001249687578105474 0.0001249687578105474 0.9788802799300175 0.02086978255436141 0.0001249687578105474 0.0001249687578105474 0.9812546863284179 0.01849537615596101 0.0001249687578105474 0.0001249687578105474 0.9805048737815546 0.0192451887028243 0.0001249687578105474 0.0001249687578105474 0.9796300924768808 0.02011997000749812 0.0001249687578105474 0.0001249687578105474 0.9787553111722069 0.02099475131217196 0.0001249687578105474 0.0001249687578105474 0.9800049987503124 0.01974506373406648 0.0001249687578105474 0.0001249687578105474 0.979005248687828 0.02074481379655086 0.0001249687578105474 0.0001249687578105474 0.9813796550862285 0.01837040739815046 0.0001249687578105474 0.0001249687578105474 0.9830042489377656 0.01674581354661335 0.0001249687578105474 0.0001249687578105474 0.9826293426643339 0.01712071982004499 0.0001249687578105474 0.0001249687578105474 0.9843789052736815 0.01537115721069733 0.0001249687578105474 0.0001249687578105474 0.9833791552111972 0.0163709072731817 0.0001249687578105474 0.0001249687578105474 0.9793801549612596 